{"learner":{"attributes":{},"feature_names":[],"feature_types":[],"gradient_booster":{"model":{"gbtree_model_param":{"num_parallel_tree":"1","num_trees":"300"},"iteration_indptr":[0,1,2,3,4,5,6,7,8,9,10,11,12,13,14,15,16,17,18,19,20,21,22,23,24,25,26,27,28,29,30,31,32,33,34,35,36,37,38,39,40,41,42,43,44,45,46,47,48,49,50,51,52,53,54,55,56,57,58,59,60,61,62,63,64,65,66,67,68,69,70,71,72,73,74,75,76,77,78,79,80,81,82,83,84,85,86,87,88,89,90,91,92,93,94,95,96,97,98,99,100,101,102,103,104,105,106,107,108,109,110,111,112,113,114,115,116,117,118,119,120,121,122,123,124,125,126,127,128,129,130,131,132,133,134,135,136,137,138,139,140,141,142,143,144,145,146,147,148,149,150,151,152,153,154,155,156,157,158,159,160,161,162,163,164,165,166,167,168,169,170,171,172,173,174,175,176,177,178,179,180,181,182,183,184,185,186,187,188,189,190,191,192,193,194,195,196,197,198,199,200,201,202,203,204,205,206,207,208,209,210,211,212,213,214,215,216,217,218,219,220,221,222,223,224,225,226,227,228,229,230,231,232,233,234,235,236,237,238,239,240,241,242,243,244,245,246,247,248,249,250,251,252,253,254,255,256,257,258,259,260,261,262,263,264,265,266,267,268,269,270,271,272,273,274,275,276,277,278,279,280,281,282,283,284,285,286,287,288,289,290,291,292,293,294,295,296,297,298,299,300],"tree_info":[0,0,0,0,0,0,0,0,0,0,0,0,0,0,0,0,0,0,0,0,0,0,0,0,0,0,0,0,0,0,0,0,0,0,0,0,0,0,0,0,0,0,0,0,0,0,0,0,0,0,0,0,0,0,0,0,0,0,0,0,0,0,0,0,0,0,0,0,0,0,0,0,0,0,0,0,0,0,0,0,0,0,0,0,0,0,0,0,0,0,0,0,0,0,0,0,0,0,0,0,0,0,0,0,0,0,0,0,0,0,0,0,0,0,0,0,0,0,0,0,0,0,0,0,0,0,0,0,0,0,0,0,0,0,0,0,0,0,0,0,0,0,0,0,0,0,0,0,0,0,0,0,0,0,0,0,0,0,0,0,0,0,0,0,0,0,0,0,0,0,0,0,0,0,0,0,0,0,0,0,0,0,0,0,0,0,0,0,0,0,0,0,0,0,0,0,0,0,0,0,0,0,0,0,0,0,0,0,0,0,0,0,0,0,0,0,0,0,0,0,0,0,0,0,0,0,0,0,0,0,0,0,0,0,0,0,0,0,0,0,0,0,0,0,0,0,0,0,0,0,0,0,0,0,0,0,0,0,0,0,0,0,0,0,0,0,0,0,0,0,0,0,0,0,0,0,0,0,0,0,0,0,0,0,0,0,0,0,0,0,0,0,0,0,0,0,0,0,0,0],"trees":[{"base_weights":[-3.8767392E-3,1.2577924E0,-8.509716E-2,1.700833E0,-2.2548594E-1,-2.8100353E-1,3.3807445E-1,1.7586423E0,-1.8118568E-1,1.5007351E-1,-4.5603445E-1,-5.3980285E-1,-3.1991437E-2,1.21941276E-1,6.5918136E-1,1.8333365E0,-1.5609992E0,-1.2465297E0,6.088172E-1,-7.0239305E-1,-2.62427E-1,-3.0526105E-1,1.300008E-1,-2.5371382E-2,7.175464E-1,5.704341E-1,1.3362725E0,1.8789136E0,-1.1868568E-1,1.6262864E0,-1.899314E-1,-1.4223907E0,1.16723835E-1,9.6219635E-1,-2.198628E0,-1.0093606E0,-5.0795007E-1,-8.074828E-1,-1.556345E-1,-3.2104608E-1,9.9246836E-1,1.4723516E-2,4.5425376E-1,6.501017E-1,-7.216731E-2,5.6458086E-1,1.0784426E0,8.176475E-1,3.9592323E-1,1.355618E0,-1.4957118E-2,1.9281714E0,-1.6986278E0,-1.245712E-2,1.16723835E-1,-1.1826322E0,-2.0618568E-1,5.774208E-1,1.4590481E-1,-1.4368568E-1,1.254288E-2,-9.7422487E-1,-2.8584564E0,-2.6768976E-1,-6.8998307E-1,-3.993361E-1,-1.0441225E0,1.5135911E-1,-3.3595455E-1,-5.4802155E-1,-2.2262362E-1,8.5068606E-2,3.443273E-1,3.6332655E-1,-9.7639926E-2,7.108352E-1,3.0641985E-1,9.208441E-1,2.3043962E-1,-1.0975567E-1,6.9424313E-1,9.343753E-1,3.9125288E-1,1.123219E0,-1.9276159E-2,6.754564E-1,1.0323445E0,1.0109854E-1,5.2275044E-1,1.4410319E0,8.864533E-1,1.9725173E0,-1.06185675E-1,-1.3118568E-1,5.004288E-2,-1.4294341E0,5.7289875E-1,7.758534E-1,-8.327616E-2,-2.0414737E-1,-1.0534294E0,-3.1206975E0,-1.245712E-2,-3.942768E-2,-5.713433E-1,-7.824601E-1,-1.6219021E-1,-2.503577E-1,-1.3994284E-1,-1.1056536E0,5.3390503E-2,4.85568E-1,4.086585E-2,-3.649668E-1,5.336008E-1,1.2613721E0,-5.803369E-1,4.2936318E-2,-4.0145433E-1,2.0068614E-2,6.7238333E-3,-7.4006036E-2,4.9010992E-1,3.04891E-1,-1.5400372E-1,7.3068196E-1,-2.3276163E-2,-7.720018E-2,3.506988E-1,6.4110965E-1,1.1567289E0,3.1607226E-1,-2.9426161E-2,6.2278125E-2,-2.1402705E-1,7.557683E-1,-1.4071357E-1,9.639703E-1,3.5238427E-3,4.1243523E-1,-3.6321366E-1,1.1516775E0,6.58102E-2,1.0232086E0,6.0136324E-1,1.0497739E0,-3.2189846E-2,-5.970731E-2,4.27504E-1,6.280704E-1,2.6669714E-1,1.4611211E0,-5.157125E-3,1.0964322E-2,1.0052675E0,1.0109178E-1,-7.79314E-2,-7.707528E-2,8.7542884E-2,-3.3276163E-2,6.0068607E-2,2.6008507E-2,1.0006861E-1,-1.8186757E-2,3.695004E-2,-5.1521223E-2,-1.569314E-1,-1.7909521E-1,-8.2435675E-2,-6.5640785E-2,1.01102945E-4,-3.947046E-3,-3.311128E-2,-3.771162E-2,-1.0921246E-1,-1.2764759E-2,2.8481785E-2,-1.9295735E-2,2.6325036E-2,-7.415264E-2,-3.804692E-2,2.7143795E-2,-4.4942822E-2,-4.8327255E-3,2.0850837E-2,-1.2639514E-2,-3.2191727E-2,5.5586053E-3,3.3855237E-2,1.0005718E-1,5.057168E-3,-2.70083E-2,-8.270155E-2,1.3842902E-2,-6.5589338E-3,-4.5255426E-2,-1.4757517E-2,-1.7807748E-2,1.1941232E-2,1.6631844E-2,3.532172E-2,1.7064331E-2,-5.170949E-2,-1.3965467E-2,-5.072632E-4,2.6557187E-2,4.1833717E-2,5.4667094E-3,-1.4324683E-2,2.4715237E-2,8.493251E-3,3.3903968E-2,-2.4571181E-3,6.2183775E-2,2.381432E-2,2.3307865E-2,-1.30952E-2,-2.7892808E-3,2.2121644E-2,-1.4090582E-2,7.7776737E-3,5.083413E-2,2.3025045E-2,5.7178857E-3,-1.3192828E-2,5.860094E-2,3.9172556E-2,2.19863E-2,-9.878532E-3,-2.5342831E-2,1.6928792E-3,5.8794536E-2,1.0140507E-2,-1.7821193E-3,6.7178844E-3,5.6003492E-2,1.2838602E-2,3.0948192E-2,-2.7476167E-2,5.307734E-2,-9.957123E-3,-2.4571181E-3,4.2879583E-5,3.909171E-3,-1.1993161E-2,2.3645392E-2,-8.373178E-3,2.8142903E-2,4.78306E-2,3.85857E-3,3.0222943E-2,7.4500315E-2,1.0190511E-2,5.2776065E-2,7.5428844E-3],"categories":[],"categories_nodes":[],"categories_segments":[],"categories_sizes":[],"default_left":[0,0,0,0,1,0,0,0,0,0,0,0,0,0,0,0,0,0,0,0,0,0,0,0,0,0,0,0,0,0,0,0,0,0,0,0,0,0,0,0,0,0,0,0,0,0,0,0,0,0,0,0,0,0,0,0,0,0,0,0,0,0,0,0,0,0,0,0,0,0,0,0,0,0,0,0,0,0,0,0,0,0,0,0,0,0,0,0,0,0,0,0,0,0,0,0,0,0,0,0,0,0,0,0,0,0,0,0,0,0,0,0,0,0,0,0,0,0,0,0,0,0,0,0,0,0,0,0,0,0,0,0,0,0,0,0,0,0,0,0,0,0,0,0,0,0,0,0,0,0,0,0,0,0,0,0,0,0,0,0,0,0,0,0,0,0,0,0,0,0,0,0,0,0,0,0,0,0,0,0,0,0,0,0,0,0,0,0,0,0,0,0,0,0,0,0,0,0,0,0,0,0,0,0,0,0,0,0,0,0,0,0,0,0,0,0,0,0,0,0,0,0,0,0,0,0,0,0,0,0,0,0,0,0,0,0,0,0,0,0,0,0,0,0,0,0,0,0,0,0,0,0,0,0,0],"id":0,"left_children":[1,3,5,7,9,11,13,15,-1,-1,17,19,21,23,25,27,29,31,33,35,37,39,41,43,45,47,49,51,-1,53,-1,55,-1,57,59,61,63,65,67,69,71,73,75,77,79,81,83,85,87,89,-1,91,93,-1,-1,95,-1,97,-1,-1,-1,99,101,103,105,107,109,111,113,115,117,-1,119,121,123,125,127,129,131,133,135,137,139,141,-1,143,145,147,149,151,153,155,-1,-1,-1,157,159,161,-1,163,165,167,-1,169,171,173,175,177,-1,179,-1,181,183,185,187,189,191,193,195,-1,-1,197,199,201,203,205,-1,207,209,211,213,215,-1,217,219,221,223,225,-1,227,229,231,233,235,237,239,241,243,245,247,249,251,-1,-1,253,-1,-1,-1,-1,-1,-1,-1,-1,-1,-1,-1,-1,-1,-1,-1,-1,-1,-1,-1,-1,-1,-1,-1,-1,-1,-1,-1,-1,-1,-1,-1,-1,-1,-1,-1,-1,-1,-1,-1,-1,-1,-1,-1,-1,-1,-1,-1,-1,-1,-1,-1,-1,-1,-1,-1,-1,-1,-1,-1,-1,-1,-1,-1,-1,-1,-1,-1,-1,-1,-1,-1,-1,-1,-1,-1,-1,-1,-1,-1,-1,-1,-1,-1,-1,-1,-1,-1,-1,-1,-1,-1,-1,-1,-1,-1,-1,-1,-1,-1,-1],"loss_changes":[7.5226105E2,2.921593E2,5.718701E2,1.1164319E2,7.799768E1,3.0383694E2,1.5142389E2,8.691968E1,0E0,0E0,8.240964E1,1.0408362E2,1.06458885E2,1.1460687E2,5.1996765E1,6.8119385E1,6.3233356E1,3.858705E1,4.37834E1,8.645227E1,4.9700268E1,1.865245E1,5.6435608E1,3.3173553E1,1.3689148E1,3.324031E1,3.6009521E0,6.1252197E1,0E0,5.8942604E0,0E0,3.0097069E1,0E0,2.6913162E1,8.988956E0,3.385791E1,3.8914673E1,1.3104774E1,3.974189E1,1.9648438E1,4.468337E0,4.371029E1,1.4803032E1,7.513977E0,2.833696E1,1.1428032E1,5.4149094E0,9.102173E0,1.7072594E1,2.7299194E0,0E0,6.2586426E1,1.511224E1,0E0,0E0,2.2915611E1,0E0,1.597962E1,0E0,0E0,0E0,3.3636475E1,6.065201E0,2.6801449E1,2.4667923E1,1.8245552E1,1.2616173E1,9.8029585E0,1.1597702E1,1.634385E1,2.9413715E1,0E0,2.9821277E-2,1.5117722E1,1.919577E1,3.7021027E0,4.324606E0,1.9638023E0,2.1496546E0,1.6803482E1,2.469408E0,1.4149475E0,2.1794395E0,2.1510315E0,0E0,4.4348297E0,2.371643E0,7.3213444E0,8.462097E0,2.7254639E0,1.2063999E0,5.922766E1,0E0,0E0,0E0,1.873787E1,6.2477474E0,8.6726265E0,0E0,8.246092E0,2.0894592E1,2.0446014E-1,0E0,1.1720169E1,7.3763313E0,1.5446472E1,5.391946E0,5.573924E0,0E0,1.0059692E1,0E0,5.724304E0,1.0437717E1,1.3538944E1,8.340268E-1,4.0891175E0,1.0450073E1,1.0218637E1,1.954282E1,0E0,0E0,5.5574784E0,6.9527893E0,5.421567E0,1.3354633E1,2.558838E0,0E0,1.0854151E0,5.810957E0,5.6921005E-1,6.5005875E-1,2.3774738E0,0E0,1.5913082E1,1.4649071E1,2.8445148E0,1.55815E-1,1.1849594E0,0E0,2.1511688E0,2.4530691E-1,1.4157333E0,2.565179E-2,2.1622467E0,3.6621704E0,2.0345917E0,1.7228557E-3,2.3538854E0,1.3218307E0,4.303604E0,6.0347347E0,2.6743622E0,0E0,0E0,4.8482513E-1,0E0,0E0,0E0,0E0,0E0,0E0,0E0,0E0,0E0,0E0,0E0,0E0,0E0,0E0,0E0,0E0,0E0,0E0,0E0,0E0,0E0,0E0,0E0,0E0,0E0,0E0,0E0,0E0,0E0,0E0,0E0,0E0,0E0,0E0,0E0,0E0,0E0,0E0,0E0,0E0,0E0,0E0,0E0,0E0,0E0,0E0,0E0,0E0,0E0,0E0,0E0,0E0,0E0,0E0,0E0,0E0,0E0,0E0,0E0,0E0,0E0,0E0,0E0,0E0,0E0,0E0,0E0,0E0,0E0,0E0,0E0,0E0,0E0,0E0,0E0,0E0,0E0,0E0,0E0,0E0,0E0,0E0,0E0,0E0,0E0,0E0,0E0,0E0,0E0,0E0,0E0,0E0,0E0,0E0,0E0,0E0,0E0,0E0,0E0,0E0],"parents":[2147483647,0,0,1,1,2,2,3,3,4,4,5,5,6,6,7,7,10,10,11,11,12,12,13,13,14,14,15,15,16,16,17,17,18,18,19,19,20,20,21,21,22,22,23,23,24,24,25,25,26,26,27,27,29,29,31,31,33,33,34,34,35,35,36,36,37,37,38,38,39,39,40,40,41,41,42,42,43,43,44,44,45,45,46,46,47,47,48,48,49,49,51,51,52,52,55,55,57,57,61,61,62,62,63,63,64,64,65,65,66,66,67,67,68,68,69,69,70,70,72,72,73,73,74,74,75,75,76,76,77,77,78,78,79,79,80,80,81,81,82,82,83,83,85,85,86,86,87,87,88,88,89,89,90,90,91,91,95,95,96,96,97,97,99,99,100,100,101,101,103,103,104,104,105,105,106,106,107,107,109,109,111,111,112,112,113,113,114,114,115,115,116,116,117,117,118,118,121,121,122,122,123,123,124,124,125,125,127,127,128,128,129,129,130,130,131,131,133,133,134,134,135,135,136,136,137,137,139,139,140,140,141,141,142,142,143,143,144,144,145,145,146,146,147,147,148,148,149,149,150,150,151,151,154,154],"right_children":[2,4,6,8,10,12,14,16,-1,-1,18,20,22,24,26,28,30,32,34,36,38,40,42,44,46,48,50,52,-1,54,-1,56,-1,58,60,62,64,66,68,70,72,74,76,78,80,82,84,86,88,90,-1,92,94,-1,-1,96,-1,98,-1,-1,-1,100,102,104,106,108,110,112,114,116,118,-1,120,122,124,126,128,130,132,134,136,138,140,142,-1,144,146,148,150,152,154,156,-1,-1,-1,158,160,162,-1,164,166,168,-1,170,172,174,176,178,-1,180,-1,182,184,186,188,190,192,194,196,-1,-1,198,200,202,204,206,-1,208,210,212,214,216,-1,218,220,222,224,226,-1,228,230,232,234,236,238,240,242,244,246,248,250,252,-1,-1,254,-1,-1,-1,-1,-1,-1,-1,-1,-1,-1,-1,-1,-1,-1,-1,-1,-1,-1,-1,-1,-1,-1,-1,-1,-1,-1,-1,-1,-1,-1,-1,-1,-1,-1,-1,-1,-1,-1,-1,-1,-1,-1,-1,-1,-1,-1,-1,-1,-1,-1,-1,-1,-1,-1,-1,-1,-1,-1,-1,-1,-1,-1,-1,-1,-1,-1,-1,-1,-1,-1,-1,-1,-1,-1,-1,-1,-1,-1,-1,-1,-1,-1,-1,-1,-1,-1,-1,-1,-1,-1,-1,-1,-1,-1,-1,-1,-1,-1,-1,-1],"split_conditions":[3E0,1.2E5,1.232E3,1.4925745E-1,6.9E1,1E0,1E0,2.834E0,-1.8118568E-1,1.5007351E-1,1.09E2,1.03E2,1.08E2,6.775E3,8.395E3,1.518352E-1,1E0,1.4339793E-1,1.03246436E-1,1.43E2,2.4E1,1E0,1.24E2,3.025379E6,1.3128E4,1.9E7,1E0,1.19799E-1,-1.1868568E-1,5.564E3,-1.899314E-1,6.516009E-2,1.16723835E-1,6.1717175E-2,1.2E6,1.135562E-1,1E7,7.77E5,8E6,1.9E1,5E0,4E6,8.1E6,1E0,9.7045E1,6E7,1E0,1.16E2,1.13E2,1.1E8,-1.4957118E-2,9.188815E-2,7.027E3,-1.245712E-2,1.16723835E-1,7.644246E-2,-2.0618568E-1,6.874434E-2,1.4590481E-1,-1.4368568E-1,1.254288E-2,7.3E1,2.5E6,1E0,1E0,1E0,1E0,1.455E6,5.3512E1,1E1,2.3E6,8.5068606E-2,1E0,7.93775E5,1E0,8.974478E-2,3.984669E6,1.02E2,7.5709075E-2,3E7,6.0150087E-2,1.15586884E-1,1E0,7.544663E-2,-1.9276159E-2,1.934E6,1E0,3.063E3,6.2E7,1E0,1.16E8,7.73585E-2,-1.06185675E-1,-1.3118568E-1,5.004288E-2,1E0,9.3039E4,1.9616249E-1,-8.327616E-2,1E0,1E0,1E0,-1.245712E-2,6.016E0,5.07E5,1E0,3.2825E1,1E0,-1.3994284E-1,4.358E6,5.3390503E-2,6.742077E-2,4.25E2,3.2E7,1.555634E7,3.5E1,1.9290131E-1,1E0,9.8E1,2.0068614E-2,6.7238333E-3,2.59E2,4.15E2,1.5981476E-1,1.08E2,2.02E2,-2.3276163E-2,1.1596E1,2.8E7,1E0,1E0,1.2878655E-1,-2.9426161E-2,3.325E3,1E0,1.16E8,2.5E7,2.7E7,3.5238427E-3,9.790321E-2,1.1E8,1E0,4.2E7,1.0579696E-1,1E0,1E0,3.025379E6,3.5E7,1E0,1.44E2,1.42E2,1.3730706E-1,-5.157125E-3,1.0964322E-2,1E0,1.0109178E-1,-7.79314E-2,-7.707528E-2,8.7542884E-2,-3.3276163E-2,6.0068607E-2,2.6008507E-2,1.0006861E-1,-1.8186757E-2,3.695004E-2,-5.1521223E-2,-1.569314E-1,-1.7909521E-1,-8.2435675E-2,-6.5640785E-2,1.01102945E-4,-3.947046E-3,-3.311128E-2,-3.771162E-2,-1.0921246E-1,-1.2764759E-2,2.8481785E-2,-1.9295735E-2,2.6325036E-2,-7.415264E-2,-3.804692E-2,2.7143795E-2,-4.4942822E-2,-4.8327255E-3,2.0850837E-2,-1.2639514E-2,-3.2191727E-2,5.5586053E-3,3.3855237E-2,1.0005718E-1,5.057168E-3,-2.70083E-2,-8.270155E-2,1.3842902E-2,-6.5589338E-3,-4.5255426E-2,-1.4757517E-2,-1.7807748E-2,1.1941232E-2,1.6631844E-2,3.532172E-2,1.7064331E-2,-5.170949E-2,-1.3965467E-2,-5.072632E-4,2.6557187E-2,4.1833717E-2,5.4667094E-3,-1.4324683E-2,2.4715237E-2,8.493251E-3,3.3903968E-2,-2.4571181E-3,6.2183775E-2,2.381432E-2,2.3307865E-2,-1.30952E-2,-2.7892808E-3,2.2121644E-2,-1.4090582E-2,7.7776737E-3,5.083413E-2,2.3025045E-2,5.7178857E-3,-1.3192828E-2,5.860094E-2,3.9172556E-2,2.19863E-2,-9.878532E-3,-2.5342831E-2,1.6928792E-3,5.8794536E-2,1.0140507E-2,-1.7821193E-3,6.7178844E-3,5.6003492E-2,1.2838602E-2,3.0948192E-2,-2.7476167E-2,5.307734E-2,-9.957123E-3,-2.4571181E-3,4.2879583E-5,3.909171E-3,-1.1993161E-2,2.3645392E-2,-8.373178E-3,2.8142903E-2,4.78306E-2,3.85857E-3,3.0222943E-2,7.4500315E-2,1.0190511E-2,5.2776065E-2,7.5428844E-3],"split_indices":[4,0,4,164808,2,11,11,3,0,0,2,2,4,4,4,166467,5,164637,163319,4,4,161660,2,0,4,0,16887,165562,0,0,0,162151,0,161968,0,162598,0,0,0,4,4,0,0,15,3,0,692,2,2,0,0,164036,1,0,0,163696,0,164651,0,0,0,2,1,15,7,1699,7,0,3,2,0,0,18,1,161616,166033,1,2,164522,0,166193,162134,57,166495,0,0,86390,4,0,3434,0,162450,0,0,0,26808,1,163905,0,5,111619,6,0,3,0,111259,3,9,0,1,0,165525,4,0,1,0,162800,161616,2,0,0,4,4,164465,2,4,0,3,0,2255,2165,163487,0,4,7,0,0,0,0,166485,0,81010,0,164275,132122,2325,0,0,4777,2,2,161742,0,0,15,0,0,0,0,0,0,0,0,0,0,0,0,0,0,0,0,0,0,0,0,0,0,0,0,0,0,0,0,0,0,0,0,0,0,0,0,0,0,0,0,0,0,0,0,0,0,0,0,0,0,0,0,0,0,0,0,0,0,0,0,0,0,0,0,0,0,0,0,0,0,0,0,0,0,0,0,0,0,0,0,0,0,0,0,0,0,0,0,0,0,0,0,0,0,0,0,0,0,0,0],"split_type":[0,0,0,0,0,0,0,0,0,0,0,0,0,0,0,0,0,0,0,0,0,0,0,0,0,0,0,0,0,0,0,0,0,0,0,0,0,0,0,0,0,0,0,0,0,0,0,0,0,0,0,0,0,0,0,0,0,0,0,0,0,0,0,0,0,0,0,0,0,0,0,0,0,0,0,0,0,0,0,0,0,0,0,0,0,0,0,0,0,0,0,0,0,0,0,0,0,0,0,0,0,0,0,0,0,0,0,0,0,0,0,0,0,0,0,0,0,0,0,0,0,0,0,0,0,0,0,0,0,0,0,0,0,0,0,0,0,0,0,0,0,0,0,0,0,0,0,0,0,0,0,0,0,0,0,0,0,0,0,0,0,0,0,0,0,0,0,0,0,0,0,0,0,0,0,0,0,0,0,0,0,0,0,0,0,0,0,0,0,0,0,0,0,0,0,0,0,0,0,0,0,0,0,0,0,0,0,0,0,0,0,0,0,0,0,0,0,0,0,0,0,0,0,0,0,0,0,0,0,0,0,0,0,0,0,0,0,0,0,0,0,0,0,0,0,0,0,0,0,0,0,0,0,0,0],"sum_hessian":[7.339E3,4.43E2,6.896E3,3.41E2,1.02E2,4.714E3,2.182E3,3.38E2,3E0,6E0,9.6E1,2.311E3,2.403E3,1.305E3,8.77E2,3.31E2,7E0,5.5E1,4.1E1,1.456E3,8.55E2,8.94E2,1.509E3,1.047E3,2.58E2,7.77E2,1E2,3.28E2,3E0,3E0,4E0,5.3E1,2E0,3.7E1,4E0,5.63E2,8.93E2,1.39E2,7.16E2,8.84E2,1E1,1.114E3,3.95E2,6.7E1,9.8E2,1.83E2,7.5E1,3.2E2,4.57E2,9.9E1,1E0,3.24E2,4E0,1E0,2E0,5E1,3E0,3.2E1,5E0,3E0,1E0,5.54E2,9E0,3.86E2,5.07E2,5.2E1,8.7E1,2.65E2,4.51E2,2.66E2,6.18E2,4E0,6E0,2.71E2,8.43E2,1.43E2,2.52E2,4E1,2.7E1,9.35E2,4.5E1,5.7E1,1.26E2,7.3E1,2E0,1.95E2,1.25E2,1.38E2,3.19E2,8.2E1,1.7E1,3.21E2,3E0,3E0,1E0,4.4E1,6E0,3E1,2E0,5.2E1,5.02E2,8E0,1E0,2.21E2,1.65E2,4.31E2,7.6E1,5E1,2E0,8.5E1,2E0,6.5E1,2E2,4.37E2,1.4E1,4E0,2.62E2,2.49E2,3.69E2,4E0,2E0,6.1E1,2.1E2,1.03E2,7.4E2,1.41E2,2E0,2.6E1,2.26E2,2E1,2E1,2.5E1,2E0,3.53E2,5.82E2,4.2E1,3E0,5.5E1,2E0,1.23E2,3E0,7.1E1,2E0,3.2E1,1.63E2,1.23E2,2E0,9.3E1,4.5E1,2.25E2,9.4E1,8.1E1,1E0,3E0,1.4E1,3.17E2,4E0,4.3E1,1E0,2E0,4E0,2.6E1,4E0,4.5E1,7E0,4.98E2,4E0,5E0,3E0,6E0,2.15E2,2.6E1,1.39E2,4.24E2,7E0,6.8E1,8E0,4.3E1,7E0,3.9E1,4.6E1,6.3E1,2E0,1.47E2,5.3E1,3.13E2,1.24E2,4E0,1E1,2E0,2E0,2.54E2,8E0,1.06E2,1.43E2,6.3E1,3.06E2,3.2E1,2.9E1,1.23E2,8.7E1,1.01E2,2E0,3.95E2,3.45E2,5.1E1,9E1,1.4E1,1.2E1,1.25E2,1.01E2,1.9E1,1E0,1.7E1,3E0,2E1,5E0,2.7E2,8.3E1,4.92E2,9E1,2.1E1,2.1E1,1E0,2E0,2.3E1,3.2E1,1.18E2,5E0,2E0,1E0,6.9E1,2E0,1E0,1E0,2.8E1,4E0,1.61E2,2E0,1.22E2,1E0,1E0,1E0,5.3E1,4E1,4.2E1,3E0,1.9E2,3.5E1,6.1E1,3.3E1,7.9E1,2E0,1.3E1,1E0],"tree_param":{"num_deleted":"0","num_feature":"166663","num_nodes":"255","size_leaf_vector":"1"}},{"base_weights":[-7.898182E-3,1.28712E0,-8.7684035E-2,1.6983817E0,2.3941589E-3,-2.704631E-1,3.127606E-1,1.7569861E0,-1.7439122E-1,1.566027E-1,-1.9845371E-1,-5.114402E-1,-3.8486164E-2,1.0686046E-1,6.323427E-1,1.8081881E0,-2.804021E0,4.607002E-1,-1.4088731E0,-6.399292E-1,-2.2300267E-1,-3.1621873E-1,1.262009E-1,-4.9324974E-2,6.0330427E-1,5.5559057E-1,1.232719E0,1.8538413E0,-1.1423498E-1,-3.9984416E-2,-1.6027845E-1,2.1556675E0,2.1257891E-1,1.5653303E0,-2.1580117E0,-1.0268326E0,-5.1850915E-1,-7.423941E-1,-1.156766E-1,-3.375031E-1,9.84762E-1,1.7699474E-2,4.3779224E-1,2.160814E-1,-1.6534756E-1,4.1922837E-1,8.636915E-1,9.0114105E-1,4.556832E-1,1.2516361E0,-1.4583195E-2,1.8987167E0,-2.1547766E0,2.7733421E0,-2.0795584E-2,-5.691955E-1,8.7760985E-1,1.0015584E-2,9.7678296E-2,-1.2593936E0,-1.7618227E-1,2.137953E-1,-1.1015815E0,-3.1345776E-1,-6.943678E-1,-1.3130602E-1,-1.0077969E0,4.6817294E-1,-2.182194E-1,-6.009573E-1,-2.2637138E-1,8.5693605E-2,4.4881982E-1,2.1408144E-1,-1.5858665E-1,5.401258E-1,1.7073993E-1,7.0894316E-2,5.217172E-1,-2.0961864E-1,5.448185E-1,7.0847684E-1,2.6668566E-1,8.957021E-1,-1.9228607E-2,7.774514E-1,1.2203531E0,2.5111306E-1,6.331734E-1,1.2798254E0,2.8332555E-1,1.9643222E0,-8.7263525E-1,-1.4984417E-2,-1.3366216E-1,1.472466E-1,3.5015583E-2,-1.0305279E-1,-2.0212157E-1,1.1049514E0,-7.791864E-2,-1.14040315E-1,-7.189396E-1,-9.983708E-2,6.814197E-2,-1.055638E0,-2.8169217E0,-1.4589034E-1,-5.854725E-1,-9.018619E-1,-5.855405E-1,1.0739922E-1,-7.486829E-1,-1.1040181E0,2.495906E-1,5.7754165E-1,-1.2446454E-1,-4.6814469E-1,-1.2047842E-1,1.2193263E0,-6.332784E-1,2.18918E-2,-3.7993333E-1,1.2975492E-2,3.339537E-2,4.471446E-3,3.9424458E-1,-6.769631E-2,-3.8515848E-1,3.4934592E-1,6.6131884E-1,-1.2219259E-2,4.3351224E-1,-5.8633793E-2,3.132391E-1,7.515143E-1,1.9962525E-1,-3.8125592E-1,-9.2810325E-2,6.1710453E-1,-6.006017E-1,6.909608E-2,6.2932444E-1,1.4298098E-1,8.14451E-1,1.1250091E0,7.262349E-1,8.028427E-1,-5.3120583E-1,1.2659416E0,1.4493673E-1,4.5905672E-2,3.905259E-1,7.9210466E-1,4.599035E-1,1.3014584E0,9.850828E-3,2.2240503E-2,-5.0282003E-3,1.0028982E-1,-8.497663E-2,5.2523375E-2,-1.1182952E-1,2.2221867E-3,-9.079535E-2,1.0089525E-1,3.1222854E-2,-5.7321697E-2,-1.9268459E-2,-7.266994E-2,7.2449753E-3,-5.0960977E-2,-1.5172306E-1,-1.4502454E-2,-1.5482624E-1,-1.0025315E-2,3.499204E-2,-4.4732623E-2,-2.446373E-2,-8.284604E-2,-4.1674953E-2,2.8043945E-4,-3.127194E-2,1.2791432E-2,-4.42121E-2,-4.9319636E-2,1.0700361E-2,-5.7666805E-2,2.8134776E-2,-1.2007936E-2,2.4676105E-2,3.137174E-2,-4.311507E-2,-3.9336976E-2,9.394226E-3,-4.9679115E-2,-1.8557327E-2,2.3101715E-3,-1.9144496E-2,9.672194E-2,4.88859E-3,-3.2575224E-2,5.8174115E-2,1.2115513E-2,-6.9071683E-3,-4.1614365E-2,-1.2713492E-2,-6.201979E-3,1.5185401E-2,3.284418E-2,1.5184939E-2,-1.3797554E-2,1.3786656E-3,-2.7889643E-2,-7.0516034E-3,1.8693427E-2,-3.4130704E-2,4.1609686E-2,2.6543362E-2,1.3037432E-3,-4.189261E-2,2.3468317E-2,-1.1842608E-2,3.430154E-2,-5.467319E-3,1.7461395E-2,-2.0193577E-2,4.0620677E-2,-2.8249694E-3,2.20375E-2,2.0206214E-3,-2.8882762E-2,-1.0948806E-2,-5.096407E-4,-1.4999471E-2,3.4342512E-2,-9.115959E-3,-4.2012382E-2,-3.032744E-3,3.2691173E-2,-2.704867E-3,9.004006E-3,-3.137989E-2,4.398328E-2,-1.5506781E-2,5.7399023E-2,-1.7375707E-3,2.5219461E-2,4.7032263E-2,4.1380268E-2,-2.3589278E-2,-3.177022E-2,-8.070218E-3,1.2640953E-2,6.418116E-2,-2.3956895E-3,1.3265944E-2,2.4838936E-2,-2.4749092E-3,2.0420356E-2,-3.5857763E-2,3.5214942E-2,5.4905903E-2,2.4841512E-2,-9.71667E-3,6.62637E-2,2.260753E-2],"categories":[],"categories_nodes":[],"categories_segments":[],"categories_sizes":[],"default_left":[0,0,0,0,0,0,0,0,0,0,0,0,0,0,0,0,0,0,0,0,0,0,0,0,0,0,0,0,0,0,0,0,0,0,0,0,0,0,0,0,0,0,0,0,0,0,0,0,0,0,0,0,0,0,0,0,0,0,0,0,0,0,0,0,0,0,0,0,0,0,0,0,0,0,0,0,0,0,0,0,0,0,0,0,0,0,0,0,0,0,0,0,0,0,0,0,0,0,0,0,0,0,0,0,0,0,0,0,0,0,0,0,0,0,0,0,0,0,0,0,0,0,0,0,0,0,0,0,0,0,0,0,0,0,0,0,0,0,0,0,0,0,0,0,0,0,0,0,0,0,0,0,0,0,0,0,0,0,0,0,0,0,0,0,0,0,0,0,0,0,0,0,0,0,0,0,0,0,0,0,0,0,0,0,0,0,0,0,0,0,0,0,0,0,0,0,0,0,0,0,0,0,0,0,0,0,0,0,0,0,0,0,0,0,0,0,0,0,0,0,0,0,0,0,0,0,0,0,0,0,0,0,0,0,0,0,0,0,0,0,0,0,0,0,0,0,0,0,0,0,0,0,0,0,0,0,0,0,0,0,0,0,0,0,0,0,0],"id":1,"left_children":[1,3,5,7,9,11,13,15,-1,17,-1,19,21,23,25,27,29,31,33,35,37,39,41,43,45,47,49,51,-1,-1,-1,53,55,57,59,61,63,65,67,69,71,73,75,77,79,81,83,85,87,89,-1,91,93,95,-1,97,99,-1,-1,101,-1,103,105,107,109,111,113,115,117,119,121,-1,123,125,127,129,131,133,135,137,139,141,143,145,-1,147,149,151,153,155,157,159,161,-1,-1,-1,-1,-1,163,165,-1,-1,167,169,-1,171,173,175,177,179,181,183,185,187,189,191,193,195,197,199,201,203,205,-1,-1,207,209,211,213,215,217,219,221,223,225,227,229,231,233,235,237,-1,239,241,243,245,247,249,251,253,255,257,259,261,263,265,-1,-1,-1,-1,-1,-1,-1,-1,-1,-1,-1,-1,-1,-1,-1,-1,-1,-1,-1,-1,-1,-1,-1,-1,-1,-1,-1,-1,-1,-1,-1,-1,-1,-1,-1,-1,-1,-1,-1,-1,-1,-1,-1,-1,-1,-1,-1,-1,-1,-1,-1,-1,-1,-1,-1,-1,-1,-1,-1,-1,-1,-1,-1,-1,-1,-1,-1,-1,-1,-1,-1,-1,-1,-1,-1,-1,-1,-1,-1,-1,-1,-1,-1,-1,-1,-1,-1,-1,-1,-1,-1,-1,-1,-1,-1,-1,-1,-1,-1,-1,-1,-1,-1,-1,-1,-1,-1,-1,-1,-1,-1],"loss_changes":[7.709108E2,2.2877515E2,5.144843E2,1.05818665E2,6.5539604E1,2.6975925E2,1.4489423E2,8.096826E1,0E0,4.9682972E1,0E0,8.758075E1,1.12557755E2,1.0400727E2,3.9082245E1,6.440222E1,6.558857E-1,3.6130257E1,4.1255535E1,7.63703E1,4.0663166E1,2.56969E1,5.222577E1,3.1475512E1,1.5023766E1,2.6068527E1,3.1622467E0,6.1475708E1,0E0,0E0,0E0,1.8625847E1,4.053215E1,1.7284746E0,1.2742905E1,3.6402405E1,4.478531E1,2.0140732E1,3.6442993E1,2.6272804E1,5.0921926E0,3.974242E1,1.0811813E1,1.3763443E1,2.2467918E1,8.194386E0,5.6188736E0,5.8028717E0,2.1517593E1,2.2577972E0,0E0,5.916797E1,3.0460663E0,1.1390305E0,0E0,1.9297844E1,2.498153E1,0E0,0E0,3.8805037E0,0E0,8.424742E0,2.6027954E1,2.62603E1,1.462381E1,5.827881E0,1.0801445E1,5.9701405E0,1.2572844E1,1.6480759E1,2.4255035E1,0E0,2.4142599E-1,2.0504086E1,1.2432805E1,6.4278717E0,5.3898783E0,6.6731443E0,7.251562E0,1.33972225E1,3.8481445E0,2.595131E0,8.4214525E0,4.195915E0,0E0,4.6132736E0,2.0717392E0,7.963854E0,8.420334E0,1.9220581E0,2.927008E-1,5.0363037E1,2.3333672E1,0E0,0E0,0E0,0E0,0E0,1.2017811E1,1.5848E1,0E0,0E0,6.9899607E-1,6.5046515E0,0E0,2.285086E1,5.460541E0,1.6722683E1,6.105606E0,1.0439484E1,1.0452042E1,4.4946876E0,2.7283435E0,7.3070984E0,9.5478046E-1,6.072586E0,3.2507308E0,7.0213776E0,1.6332422E1,3.821054E0,9.370712E0,8.640501E0,2.2128212E1,0E0,0E0,9.728381E0,6.7445107E0,8.598482E0,7.2123528E0,3.1401339E0,3.4591217E0,2.1401784E0,1.216795E0,5.324192E0,2.050829E0,2.8999252E0,1.632965E0,8.510723E0,6.8435907E0,2.3554802E0,3.3722305E-1,0E0,1.039959E0,3.0861492E0,1.9596252E0,1.451889E0,3.1881294E0,4.304283E0,1.3041258E-2,4.6366882E-1,8.235972E-2,4.9283023E0,3.580801E0,3.6601105E0,3.8411674E0,1.2414093E0,0E0,0E0,0E0,0E0,0E0,0E0,0E0,0E0,0E0,0E0,0E0,0E0,0E0,0E0,0E0,0E0,0E0,0E0,0E0,0E0,0E0,0E0,0E0,0E0,0E0,0E0,0E0,0E0,0E0,0E0,0E0,0E0,0E0,0E0,0E0,0E0,0E0,0E0,0E0,0E0,0E0,0E0,0E0,0E0,0E0,0E0,0E0,0E0,0E0,0E0,0E0,0E0,0E0,0E0,0E0,0E0,0E0,0E0,0E0,0E0,0E0,0E0,0E0,0E0,0E0,0E0,0E0,0E0,0E0,0E0,0E0,0E0,0E0,0E0,0E0,0E0,0E0,0E0,0E0,0E0,0E0,0E0,0E0,0E0,0E0,0E0,0E0,0E0,0E0,0E0,0E0,0E0,0E0,0E0,0E0,0E0,0E0,0E0,0E0,0E0,0E0,0E0,0E0,0E0,0E0,0E0,0E0,0E0,0E0,0E0,0E0],"parents":[2147483647,0,0,1,1,2,2,3,3,4,4,5,5,6,6,7,7,9,9,11,11,12,12,13,13,14,14,15,15,16,16,17,17,18,18,19,19,20,20,21,21,22,22,23,23,24,24,25,25,26,26,27,27,31,31,32,32,33,33,34,34,35,35,36,36,37,37,38,38,39,39,40,40,41,41,42,42,43,43,44,44,45,45,46,46,47,47,48,48,49,49,51,51,52,52,53,53,55,55,56,56,59,59,61,61,62,62,63,63,64,64,65,65,66,66,67,67,68,68,69,69,70,70,72,72,73,73,74,74,75,75,76,76,77,77,78,78,79,79,80,80,81,81,82,82,83,83,85,85,86,86,87,87,88,88,89,89,90,90,91,91,92,92,98,98,99,99,102,102,103,103,105,105,106,106,107,107,108,108,109,109,110,110,111,111,112,112,113,113,114,114,115,115,116,116,117,117,118,118,119,119,120,120,121,121,122,122,125,125,126,126,127,127,128,128,129,129,130,130,131,131,132,132,133,133,134,134,135,135,136,136,137,137,138,138,139,139,140,140,142,142,143,143,144,144,145,145,146,146,147,147,148,148,149,149,150,150,151,151,152,152,153,153,154,154,155,155],"right_children":[2,4,6,8,10,12,14,16,-1,18,-1,20,22,24,26,28,30,32,34,36,38,40,42,44,46,48,50,52,-1,-1,-1,54,56,58,60,62,64,66,68,70,72,74,76,78,80,82,84,86,88,90,-1,92,94,96,-1,98,100,-1,-1,102,-1,104,106,108,110,112,114,116,118,120,122,-1,124,126,128,130,132,134,136,138,140,142,144,146,-1,148,150,152,154,156,158,160,162,-1,-1,-1,-1,-1,164,166,-1,-1,168,170,-1,172,174,176,178,180,182,184,186,188,190,192,194,196,198,200,202,204,206,-1,-1,208,210,212,214,216,218,220,222,224,226,228,230,232,234,236,238,-1,240,242,244,246,248,250,252,254,256,258,260,262,264,266,-1,-1,-1,-1,-1,-1,-1,-1,-1,-1,-1,-1,-1,-1,-1,-1,-1,-1,-1,-1,-1,-1,-1,-1,-1,-1,-1,-1,-1,-1,-1,-1,-1,-1,-1,-1,-1,-1,-1,-1,-1,-1,-1,-1,-1,-1,-1,-1,-1,-1,-1,-1,-1,-1,-1,-1,-1,-1,-1,-1,-1,-1,-1,-1,-1,-1,-1,-1,-1,-1,-1,-1,-1,-1,-1,-1,-1,-1,-1,-1,-1,-1,-1,-1,-1,-1,-1,-1,-1,-1,-1,-1,-1,-1,-1,-1,-1,-1,-1,-1,-1,-1,-1,-1,-1,-1,-1,-1,-1,-1,-1],"split_conditions":[3E0,1E5,1.232E3,6.9730245E-2,6.0420386E-2,1E0,1E0,1E0,-1.7439122E-1,4.885558E-2,-1.9845371E-1,1.06E2,1.08E2,5.758E3,8.395E3,1.518352E-1,1.59E0,6.2E1,2.89E5,6.6E1,2.4E1,1E0,1.24E2,1.95E7,1.0174E4,9E6,1E0,1.5414973E-1,-1.1423498E-1,-3.9984416E-2,-1.6027845E-1,9.816219E-2,1E2,1.2E5,1.4283247E-1,5.7E1,1E7,7.77E5,2.1E6,1.9E1,5E0,1E7,2.7E7,2.705E3,9.0059E1,6.5E7,1E0,1.2E2,1.18E2,9.9502325E-2,-1.4583195E-2,7.4275225E-2,1E2,2E0,-2.0795584E-2,2.24056E5,9.849409E-2,1.0015584E-2,9.7678296E-2,9.3E1,-1.7618227E-1,1E0,1.01541504E-1,1E0,1.1811E1,1E0,4.247247E7,1E0,1.33E2,1E1,2.3E6,8.5693605E-2,4E5,2.89E2,1E0,2.45E2,1.39E2,1.02E2,1E0,2.215E3,7.8246646E-2,1E0,9.7045E1,1.1E8,-1.9228607E-2,1E0,1E0,1.89E3,4E7,7.2474554E-2,3.6E7,2.492374E-1,8.2E1,-1.4984417E-2,-1.3366216E-1,1.472466E-1,3.5015583E-2,-1.0305279E-1,7.524452E-2,9.15E-1,-7.791864E-2,-1.14040315E-1,5.811513E-2,4E0,6.814197E-2,1E0,6.7E1,1E0,1.92E2,3.31091E5,1E0,7.980759E-2,1.0432569E-1,7.051744E-2,1.1E6,1.07508056E-1,4.614E0,1.53E6,2.4E7,3.5E1,1.4646487E-1,1E0,1E2,1.2975492E-2,3.339537E-2,1.08E2,1E0,3.36E2,6.5E2,9.029976E-2,8E6,5.5666544E-2,1.3331607E-1,8.58572E5,1.20028354E-1,5.7605714E-2,6.0781544E7,1.01E2,8.6E7,6.0150087E-2,2.06E7,6.909608E-2,1E0,1.4783388E-1,1E0,1E0,1.4505E4,1E0,5.25E6,1.0549E1,3.025379E6,1.25E7,1E0,1.46E2,1E0,4.6337523E-2,9.850828E-3,2.2240503E-2,-5.0282003E-3,1.0028982E-1,-8.497663E-2,5.2523375E-2,-1.1182952E-1,2.2221867E-3,-9.079535E-2,1.0089525E-1,3.1222854E-2,-5.7321697E-2,-1.9268459E-2,-7.266994E-2,7.2449753E-3,-5.0960977E-2,-1.5172306E-1,-1.4502454E-2,-1.5482624E-1,-1.0025315E-2,3.499204E-2,-4.4732623E-2,-2.446373E-2,-8.284604E-2,-4.1674953E-2,2.8043945E-4,-3.127194E-2,1.2791432E-2,-4.42121E-2,-4.9319636E-2,1.0700361E-2,-5.7666805E-2,2.8134776E-2,-1.2007936E-2,2.4676105E-2,3.137174E-2,-4.311507E-2,-3.9336976E-2,9.394226E-3,-4.9679115E-2,-1.8557327E-2,2.3101715E-3,-1.9144496E-2,9.672194E-2,4.88859E-3,-3.2575224E-2,5.8174115E-2,1.2115513E-2,-6.9071683E-3,-4.1614365E-2,-1.2713492E-2,-6.201979E-3,1.5185401E-2,3.284418E-2,1.5184939E-2,-1.3797554E-2,1.3786656E-3,-2.7889643E-2,-7.0516034E-3,1.8693427E-2,-3.4130704E-2,4.1609686E-2,2.6543362E-2,1.3037432E-3,-4.189261E-2,2.3468317E-2,-1.1842608E-2,3.430154E-2,-5.467319E-3,1.7461395E-2,-2.0193577E-2,4.0620677E-2,-2.8249694E-3,2.20375E-2,2.0206214E-3,-2.8882762E-2,-1.0948806E-2,-5.096407E-4,-1.4999471E-2,3.4342512E-2,-9.115959E-3,-4.2012382E-2,-3.032744E-3,3.2691173E-2,-2.704867E-3,9.004006E-3,-3.137989E-2,4.398328E-2,-1.5506781E-2,5.7399023E-2,-1.7375707E-3,2.5219461E-2,4.7032263E-2,4.1380268E-2,-2.3589278E-2,-3.177022E-2,-8.070218E-3,1.2640953E-2,6.418116E-2,-2.3956895E-3,1.3265944E-2,2.4838936E-2,-2.4749092E-3,2.0420356E-2,-3.5857763E-2,3.5214942E-2,5.4905903E-2,2.4841512E-2,-9.71667E-3,6.62637E-2,2.260753E-2],"split_indices":[4,0,4,164808,162151,11,11,2685,0,164348,0,2,4,4,4,166467,3,2,0,4,4,161660,2,0,4,0,16887,165778,0,0,0,165686,2,0,164348,2,0,0,0,4,4,0,0,4,3,0,23751,2,2,164620,0,163214,0,4,0,0,163302,0,0,2,0,19,165026,15,3,161636,1,15,4,2,0,0,0,4,21,4,2,2,15,4,163437,161616,3,0,0,88571,7246,4,0,166215,0,164409,2,0,0,0,0,0,163146,3,0,0,164348,4,0,111619,2,10,4,1,161616,166170,166641,164984,0,163487,3,1,0,0,162885,161616,2,0,0,2,161616,4,4,165584,0,164658,166604,0,164602,164301,1,2,0,166193,0,0,6545,163839,3953,1780,4,8970,0,3,0,0,52519,2,113228,164558,0,0,0,0,0,0,0,0,0,0,0,0,0,0,0,0,0,0,0,0,0,0,0,0,0,0,0,0,0,0,0,0,0,0,0,0,0,0,0,0,0,0,0,0,0,0,0,0,0,0,0,0,0,0,0,0,0,0,0,0,0,0,0,0,0,0,0,0,0,0,0,0,0,0,0,0,0,0,0,0,0,0,0,0,0,0,0,0,0,0,0,0,0,0,0,0,0,0,0,0,0,0,0,0,0,0,0,0,0,0,0],"split_type":[0,0,0,0,0,0,0,0,0,0,0,0,0,0,0,0,0,0,0,0,0,0,0,0,0,0,0,0,0,0,0,0,0,0,0,0,0,0,0,0,0,0,0,0,0,0,0,0,0,0,0,0,0,0,0,0,0,0,0,0,0,0,0,0,0,0,0,0,0,0,0,0,0,0,0,0,0,0,0,0,0,0,0,0,0,0,0,0,0,0,0,0,0,0,0,0,0,0,0,0,0,0,0,0,0,0,0,0,0,0,0,0,0,0,0,0,0,0,0,0,0,0,0,0,0,0,0,0,0,0,0,0,0,0,0,0,0,0,0,0,0,0,0,0,0,0,0,0,0,0,0,0,0,0,0,0,0,0,0,0,0,0,0,0,0,0,0,0,0,0,0,0,0,0,0,0,0,0,0,0,0,0,0,0,0,0,0,0,0,0,0,0,0,0,0,0,0,0,0,0,0,0,0,0,0,0,0,0,0,0,0,0,0,0,0,0,0,0,0,0,0,0,0,0,0,0,0,0,0,0,0,0,0,0,0,0,0,0,0,0,0,0,0,0,0,0,0,0,0,0,0,0,0,0,0,0,0,0,0,0,0,0,0,0,0,0,0],"sum_hessian":[7.459E3,4.32E2,7.027E3,3.27E2,1.05E2,4.825E3,2.202E3,3.24E2,3E0,1.02E2,3E0,2.366E3,2.459E3,1.34E3,8.62E2,3.21E2,3E0,8.6E1,1.6E1,1.636E3,7.3E2,9.15E2,1.544E3,1.02E3,3.2E2,7.66E2,9.6E1,3.18E2,3E0,1E0,2E0,1E1,7.6E1,3E0,1.3E1,3.89E2,1.247E3,1.24E2,6.06E2,9.01E2,1.4E1,1.146E3,3.98E2,3.1E2,7.1E2,1.89E2,1.31E2,1.7E2,5.96E2,9.5E1,1E0,3.15E2,3E0,8E0,2E0,3.5E1,4.1E1,1E0,2E0,9E0,4E0,2.2E1,3.67E2,5.77E2,6.7E2,3.8E1,8.6E1,9E1,5.16E2,2.66E2,6.35E2,5E0,9E0,5.42E2,6.04E2,2.87E2,1.11E2,2.11E2,9.9E1,6.69E2,4.1E1,6.4E1,1.25E2,1.28E2,3E0,1.25E2,4.5E1,2.78E2,3.18E2,9.2E1,3E0,3.08E2,7E0,1E0,2E0,7E0,1E0,6E0,2.9E1,3.8E1,3E0,2E0,7E0,1.8E1,4E0,3.59E2,8E0,3.58E2,2.19E2,2.28E2,4.42E2,2.8E1,1E1,8E1,6E0,7.6E1,1.4E1,1.44E2,3.72E2,4E0,2.62E2,2.43E2,3.92E2,6E0,3E0,2.51E2,2.91E2,4.32E2,1.72E2,1.13E2,1.74E2,6.6E1,4.5E1,1.38E2,7.3E1,5.7E1,4.2E1,2.7E2,3.99E2,3.9E1,2E0,5E0,5.9E1,1.03E2,2.2E1,5.2E1,7.6E1,1.23E2,2E0,4.3E1,2E0,1.13E2,1.65E2,1.64E2,1.54E2,9E1,2E0,2E0,1E0,3.05E2,3E0,3E0,4E0,2.6E1,3E0,1.2E1,2.6E1,2E0,5E0,2E0,1.6E1,3.54E2,5E0,1E0,7E0,3.37E2,2.1E1,5E1,1.69E2,1.7E1,2.11E2,2.8E1,4.14E2,2.5E1,3E0,8E0,2E0,7.8E1,2E0,2E0,4E0,7.4E1,2E0,4E0,1E1,2.1E1,1.23E2,2.28E2,1.44E2,2E0,2E0,2.6E2,2E0,1.02E2,1.41E2,8.4E1,3.08E2,1.76E2,7.5E1,7.3E1,2.18E2,1.35E2,2.97E2,1E2,7.2E1,1.11E2,2E0,7.3E1,1.01E2,6.4E1,2E0,4.3E1,2E0,8E0,1.3E2,7E1,3E0,5.3E1,4E0,1.6E1,2.6E1,1.21E2,1.49E2,2.86E2,1.13E2,3.6E1,3E0,1E0,1E0,5.7E1,2E0,9.9E1,4E0,2.1E1,1E0,5.1E1,1E0,3.9E1,3.7E1,1.21E2,2E0,1E0,1E0,1E0,4.2E1,1E0,1E0,1.9E1,9.4E1,1.63E2,2E0,1.3E2,3.4E1,1.46E2,8E0,8.7E1,3E0],"tree_param":{"num_deleted":"0","num_feature":"166663","num_nodes":"267","size_leaf_vector":"1"}},{"base_weights":[2.9989146E-3,1.1912379E0,-7.343595E-2,1.6358614E0,-9.1574304E-2,-2.4695419E-1,3.16609E-1,1.7177519E0,-1.8954203E0,2.2504282E0,-3.834441E-1,-4.527186E-1,-3.8611698E-3,1.19315706E-1,6.200136E-1,1.775458E0,-1.6785155E-1,3.66889E-1,-1.3553359E-1,2.7692463E0,-2.010239E-2,-5.817145E-1,2.447119E0,-7.5314045E-1,-3.4620428E-1,-3.0042696E-1,1.3074864E-1,1.2478518E-2,7.163475E-1,5.47161E-1,1.174662E0,1.8520733E0,-5.5903524E-1,3.250834E-2,-4.9916627E-3,1.4548051E-1,3.4140196E-2,-4.502783E-1,-2.9363716E0,1.4414215E-2,1.3794386E-1,-5.3394085E-1,-1.1038297E0,-1.9801742E-1,-5.721141E-1,-5.2571756E-1,-1.6266176E-1,3.4486207E-1,-6.338015E-2,-2.9070184E-2,6.072596E-1,1.1194586E0,6.097602E-1,7.5147134E-1,3.8367438E-1,1.1928225E0,-1.4218616E-2,1.9027085E0,-1.6374731E0,-1.4786745E0,8.402668E-1,-2.7984637E-1,-2.247441E0,1.4976931E-2,-1.910117E-1,-7.649021E-1,-2.914741E-1,-1.0522758E0,-1.7664693E-1,-7.85253E-2,-5.5787116E-1,-4.811055E-1,-7.92723E-1,-5.6606436E-1,1.2833639E0,3.3112755E-1,-2.8384852E-1,2.3461431E-1,5.2855605E-1,-1.8198226E-1,2.1263385E-1,5.198548E-1,-8.598639E-2,6.4372253E-1,-2.2298163E-2,1.1453313E0,2.7605772E-3,4.721554E-1,8.2083416E-1,6.1088026E-1,9.6414775E-1,1.776405E-1,5.3340185E-1,1.2142814E0,1.2283596E-1,1.9428768E0,-1.6358E0,-1.2980054E-1,-6.65555E-3,-1.9418424E0,3.250834E-2,1.1262506E-2,8.250834E-2,-1.8286046E-1,-1.4672488E-1,-2.4891446E0,-1.3887906E-2,2.231975E-1,-8.730119E-1,1.3254102E0,-3.2174894E-1,-1.1261106E0,-2.5212565E-1,-2.86106E-1,9.7689815E-2,-9.0177727E-1,-4.6986932E-1,-5.294984E-1,-1.4169478E-1,-1.4885873E0,-7.3115027E-1,1.9268785E-2,-6.777756E-1,8.769843E-2,3.0478472E-2,3.7225455E-1,-4.5854744E-2,-1.8071242E-1,-5.494753E-1,9.91072E-2,3.995269E-1,4.3674618E-1,8.113911E-1,-1.2735635E-1,-5.9433955E-1,1.6418827E-1,8.806102E-1,7.575369E-1,1.4695473E-1,-2.562542E-1,2.3004394E-2,6.77286E-1,-1.6581185E-2,1.1827085E0,1.5128382E-2,4.9354637E-1,-1.8487025E-2,8.669567E-1,-1.7992672E-2,6.687445E-1,1.3147004E-1,9.794179E-1,-8.7617235E-3,4.887535E-2,3.404466E-1,6.426644E-1,3.0964053E-1,1.2333618E0,2.2438748E-1,-4.902494E-3,1.4115191E-2,9.8867655E-2,-1.0934233E-1,-1.3786E-1,-1.7146667E-2,-1.19513884E-1,7.5083375E-3,-1.3379522E-2,1.1111442E-1,-5.7544302E-2,-1.6025585E-1,3.1458788E-2,-8.804992E-2,-4.1339286E-2,-1.4310299E-1,9.3497865E-2,-7.705772E-3,-2.8846875E-2,-5.1372326E-3,-6.549714E-2,-4.1566756E-2,2.8087616E-2,-2.5470568E-2,-1.9791226E-3,-2.1479689E-2,2.348561E-2,-4.074068E-4,-5.023675E-3,-5.2345254E-2,-6.4216903E-3,-2.8858423E-2,-3.9706957E-2,-2.1359017E-2,1.7605057E-2,-1.1567841E-2,-7.937779E-2,2.3727894E-3,-3.4453053E-2,-9.116182E-2,-6.892772E-3,6.047796E-2,-3.0060241E-2,-7.671177E-2,-1.4557088E-2,2.2843612E-2,-1.4201917E-2,1.4184517E-2,-3.8116295E-2,-6.9457362E-3,-8.788372E-3,9.831744E-3,3.4167282E-2,1.2786857E-2,2.2486674E-2,-2.9598514E-2,4.284558E-2,-2.0750111E-2,-2.3309382E-2,-2.8898146E-3,-1.4738875E-2,-5.1617246E-2,8.913628E-3,-4.687369E-2,4.8122376E-2,-8.673715E-3,4.0999766E-2,-3.4084264E-2,-9.10383E-3,1.4996722E-2,-2.2993179E-2,-6.4495313E-3,1.277414E-2,-3.6863368E-3,3.534661E-2,-1.0034553E-2,6.031638E-2,8.310581E-3,3.1754818E-2,1.8336046E-2,4.472596E-2,2.7142286E-3,3.4249377E-2,-2.5896287E-2,-8.515801E-3,1.688204E-2,4.9752623E-2,-1.8532276E-4,-9.927035E-4,3.3557415E-4,9.508476E-3,-1.154974E-2,2.1696871E-2,-2.447577E-3,1.3042758E-2,3.588247E-2,6.837029E-3,2.664868E-2,6.3134946E-2,2.3517905E-2,2.4121762E-3,1.4416886E-2],"categories":[],"categories_nodes":[],"categories_segments":[],"categories_sizes":[],"default_left":[0,0,0,0,1,0,0,0,0,0,0,0,0,0,0,0,0,0,0,0,0,0,0,0,0,0,0,0,0,0,0,0,0,0,0,0,0,0,0,0,0,0,0,0,0,0,0,0,0,0,0,0,0,0,0,0,0,0,0,0,0,0,0,0,0,0,0,0,0,0,0,0,0,0,0,0,0,0,0,0,0,0,0,0,0,0,0,0,0,0,0,0,0,0,0,0,0,0,0,0,0,0,0,0,0,0,0,0,0,0,0,0,0,0,0,0,0,0,0,0,0,0,0,0,0,0,0,0,0,0,0,0,0,0,0,0,0,0,0,0,0,0,0,0,0,0,0,0,0,0,0,0,0,0,0,0,0,0,0,0,0,0,0,0,0,0,0,0,0,0,0,0,0,0,0,0,0,0,0,0,0,0,0,0,0,0,0,0,0,0,0,0,0,0,0,0,0,0,0,0,0,0,0,0,0,0,0,0,0,0,0,0,0,0,0,0,0,0,0,0,0,0,0,0,0,0,0,0,0,0,0,0,0,0,0,0,0,0,0,0,0,0,0,0,0,0,0,0,0,0,0,0,0,0,0,0,0,0,0,0,0],"id":2,"left_children":[1,3,5,7,9,11,13,15,17,19,21,23,25,27,29,31,-1,33,-1,35,-1,37,39,41,43,45,47,49,51,53,55,57,59,-1,-1,-1,-1,61,63,-1,-1,65,67,69,71,73,75,77,79,81,83,85,87,89,91,93,-1,95,97,99,101,103,105,-1,-1,107,109,111,-1,113,115,117,119,121,123,125,127,129,131,133,135,137,139,141,-1,143,-1,145,147,149,151,153,155,157,159,161,163,-1,-1,165,-1,-1,-1,167,-1,169,-1,171,173,175,177,179,181,183,185,187,189,191,193,195,197,199,201,-1,-1,203,-1,205,207,209,211,213,215,217,219,221,223,225,227,229,231,233,-1,235,-1,237,-1,239,-1,241,243,245,247,249,251,253,255,257,259,-1,-1,-1,-1,-1,-1,-1,-1,-1,-1,-1,-1,-1,-1,-1,-1,-1,-1,-1,-1,-1,-1,-1,-1,-1,-1,-1,-1,-1,-1,-1,-1,-1,-1,-1,-1,-1,-1,-1,-1,-1,-1,-1,-1,-1,-1,-1,-1,-1,-1,-1,-1,-1,-1,-1,-1,-1,-1,-1,-1,-1,-1,-1,-1,-1,-1,-1,-1,-1,-1,-1,-1,-1,-1,-1,-1,-1,-1,-1,-1,-1,-1,-1,-1,-1,-1,-1,-1,-1,-1,-1,-1,-1,-1,-1,-1,-1,-1,-1,-1,-1,-1],"loss_changes":[6.717228E2,2.5510449E2,4.703859E2,9.926306E1,8.015585E1,2.405939E2,1.2802574E2,1.01135254E2,1.5749321E1,1.9003357E1,5.9790077E1,8.309729E1,8.810427E1,8.278423E1,3.3420868E1,5.8627625E1,0E0,4.615443E-1,0E0,1.2347717E0,0E0,2.9007553E1,3.9159012E0,5.1759735E1,6.4329666E1,2.1299126E1,6.3118416E1,2.7250694E1,7.7817993E0,2.4662964E1,2.9093933E0,5.8244263E1,1.5397866E1,0E0,0E0,0E0,0E0,2.8162693E1,1.5444801E1,0E0,0E0,2.3353226E1,2.8967438E1,5.0007828E1,1.4917526E1,1.9777008E1,2.576566E1,1.4497833E1,2.6129162E1,3.2255947E1,3.0521393E0,1.0381622E0,4.201515E0,9.30806E0,1.2769257E1,2.0550842E0,0E0,4.6956055E1,6.8643827E0,8.164599E0,2.1188097E0,2.186274E1,3.1172562E0,0E0,0E0,2.3161842E1,1.0559284E1,1.4899353E1,0E0,3.2034447E1,8.352951E0,8.827354E0,8.380646E0,1.6752472E1,8.333788E-1,4.704921E0,9.352222E0,1.0083519E1,6.656723E0,1.2493479E1,7.621937E0,8.485949E0,1.735727E1,2.5161247E0,0E0,8.706589E-1,0E0,1.9473648E0,3.633812E0,5.5156937E0,1.9399261E0,3.6939445E0,5.6931458E0,1.4986725E0,1.3335241E-1,4.7749146E1,4.8537474E0,0E0,0E0,5.9877205E0,0E0,0E0,0E0,1.7916655E1,0E0,3.0183678E0,0E0,1.8829865E1,1.5471237E1,3.5108752E0,1.1341751E1,1.1645477E1,5.1023436E0,1.4202988E1,1.8667145E1,6.6397133E0,8.462002E0,1.2495514E1,3.1364183E0,2.6596832E0,8.166519E0,8.0217285E0,1.3177261E1,0E0,0E0,4.792224E0,0E0,1.207679E1,8.283358E0,6.736533E0,8.150528E0,3.0184326E0,3.984314E0,1.1616202E1,8.224323E0,3.658256E0,1.5471735E0,5.862583E0,2.017681E0,9.398586E0,1.28594265E1,1.9118252E0,0E0,6.878128E-1,0E0,1.4904995E0,0E0,1.272995E0,0E0,3.8243027E0,1.488553E0,1.971138E0,6.4815267E-4,3.9983299E0,2.8608427E0,4.4222336E0,3.0548778E0,1.4654388E0,1.9882903E-2,0E0,0E0,0E0,0E0,0E0,0E0,0E0,0E0,0E0,0E0,0E0,0E0,0E0,0E0,0E0,0E0,0E0,0E0,0E0,0E0,0E0,0E0,0E0,0E0,0E0,0E0,0E0,0E0,0E0,0E0,0E0,0E0,0E0,0E0,0E0,0E0,0E0,0E0,0E0,0E0,0E0,0E0,0E0,0E0,0E0,0E0,0E0,0E0,0E0,0E0,0E0,0E0,0E0,0E0,0E0,0E0,0E0,0E0,0E0,0E0,0E0,0E0,0E0,0E0,0E0,0E0,0E0,0E0,0E0,0E0,0E0,0E0,0E0,0E0,0E0,0E0,0E0,0E0,0E0,0E0,0E0,0E0,0E0,0E0,0E0,0E0,0E0,0E0,0E0,0E0,0E0,0E0,0E0,0E0,0E0,0E0,0E0,0E0,0E0,0E0,0E0,0E0],"parents":[2147483647,0,0,1,1,2,2,3,3,4,4,5,5,6,6,7,7,8,8,9,9,10,10,11,11,12,12,13,13,14,14,15,15,17,17,19,19,21,21,22,22,23,23,24,24,25,25,26,26,27,27,28,28,29,29,30,30,31,31,32,32,37,37,38,38,41,41,42,42,43,43,44,44,45,45,46,46,47,47,48,48,49,49,50,50,51,51,52,52,53,53,54,54,55,55,57,57,58,58,59,59,60,60,61,61,62,62,65,65,66,66,67,67,69,69,70,70,71,71,72,72,73,73,74,74,75,75,76,76,77,77,78,78,79,79,80,80,81,81,82,82,83,83,85,85,87,87,88,88,89,89,90,90,91,91,92,92,93,93,94,94,95,95,96,96,99,99,103,103,105,105,107,107,108,108,109,109,110,110,111,111,112,112,113,113,114,114,115,115,116,116,117,117,118,118,119,119,120,120,121,121,122,122,125,125,127,127,128,128,129,129,130,130,131,131,132,132,133,133,134,134,135,135,136,136,137,137,138,138,139,139,140,140,141,141,143,143,145,145,147,147,149,149,150,150,151,151,152,152,153,153,154,154,155,155,156,156,157,157,158,158],"right_children":[2,4,6,8,10,12,14,16,18,20,22,24,26,28,30,32,-1,34,-1,36,-1,38,40,42,44,46,48,50,52,54,56,58,60,-1,-1,-1,-1,62,64,-1,-1,66,68,70,72,74,76,78,80,82,84,86,88,90,92,94,-1,96,98,100,102,104,106,-1,-1,108,110,112,-1,114,116,118,120,122,124,126,128,130,132,134,136,138,140,142,-1,144,-1,146,148,150,152,154,156,158,160,162,164,-1,-1,166,-1,-1,-1,168,-1,170,-1,172,174,176,178,180,182,184,186,188,190,192,194,196,198,200,202,-1,-1,204,-1,206,208,210,212,214,216,218,220,222,224,226,228,230,232,234,-1,236,-1,238,-1,240,-1,242,244,246,248,250,252,254,256,258,260,-1,-1,-1,-1,-1,-1,-1,-1,-1,-1,-1,-1,-1,-1,-1,-1,-1,-1,-1,-1,-1,-1,-1,-1,-1,-1,-1,-1,-1,-1,-1,-1,-1,-1,-1,-1,-1,-1,-1,-1,-1,-1,-1,-1,-1,-1,-1,-1,-1,-1,-1,-1,-1,-1,-1,-1,-1,-1,-1,-1,-1,-1,-1,-1,-1,-1,-1,-1,-1,-1,-1,-1,-1,-1,-1,-1,-1,-1,-1,-1,-1,-1,-1,-1,-1,-1,-1,-1,-1,-1,-1,-1,-1,-1,-1,-1,-1,-1,-1,-1,-1,-1],"split_conditions":[3E0,1E5,1.279E3,1.1041745E-1,6.9E1,1.06E2,1E0,1.4925745E-1,2.7E1,9.816219E-2,6.1717175E-2,6.8E1,7.8E1,7.819E3,8.395E3,6.15816E5,-1.6785155E-1,1E1,-1.3553359E-1,1E0,-2.010239E-2,6.516009E-2,8.5E1,2.7E6,1.3E7,1.8E1,1.25E7,9.0059E1,3.4E7,1.9E7,1E0,7.379499E-2,9.1E1,3.250834E-2,-4.9916627E-3,1.4548051E-1,3.4140196E-2,1E0,1.2E5,1.4414215E-2,1.3794386E-1,1E0,1E0,1E0,1E0,1E0,1.2E6,1.25E2,1.26E2,4.75E6,1.6190195E-1,1E0,1.3128E4,1.16E2,1.2E2,7.2438754E-2,-1.4218616E-2,2.492374E-1,6.755E3,1E0,1.5E2,1.4890432E-1,3.025379E6,1.4976931E-2,-1.910117E-1,6.4E1,1E1,1.8E7,-1.7664693E-1,2.31E2,1.71E2,1E0,1.23E2,1.13E2,4.95E5,1.9620666E-1,1E0,3.52E2,5E2,5.01E7,3.7433E1,1E0,2.215E3,1E0,-2.2298163E-2,7.124329E-2,2.7605772E-3,6.3002124E-2,1E0,1E0,1E0,2.705E3,6E7,1E0,3.8E7,1E0,3E0,-1.2980054E-1,-6.65555E-3,1E0,3.250834E-2,1.1262506E-2,8.250834E-2,1.0123401E-1,-1.4672488E-1,3.5E5,-1.3887906E-2,1.179653E-1,1.01541504E-1,3.5E1,1.5E1,1E0,2.1E1,2.5E6,1.5E6,1E0,9.04765E5,9.2E1,2E7,1E0,1E0,1.1388599E-1,5.8622926E-2,8.769843E-2,3.0478472E-2,1.43837E5,-4.5854744E-2,1.48E2,5.652E0,2E6,4.25E6,1E0,1E0,2.02E2,1E0,5.888621E-2,1E0,6.502205E-2,1.6E3,9.6E1,3.2E7,1E0,-1.6581185E-2,1E0,1.5128382E-2,5.2402867E8,-1.8487025E-2,1E0,-1.7992672E-2,1E0,9.6E1,1E0,7.275E6,1E0,1E0,1.5335E1,1.37E2,1E0,1.16E8,-4.902494E-3,1.4115191E-2,9.8867655E-2,-1.0934233E-1,-1.3786E-1,-1.7146667E-2,-1.19513884E-1,7.5083375E-3,-1.3379522E-2,1.1111442E-1,-5.7544302E-2,-1.6025585E-1,3.1458788E-2,-8.804992E-2,-4.1339286E-2,-1.4310299E-1,9.3497865E-2,-7.705772E-3,-2.8846875E-2,-5.1372326E-3,-6.549714E-2,-4.1566756E-2,2.8087616E-2,-2.5470568E-2,-1.9791226E-3,-2.1479689E-2,2.348561E-2,-4.074068E-4,-5.023675E-3,-5.2345254E-2,-6.4216903E-3,-2.8858423E-2,-3.9706957E-2,-2.1359017E-2,1.7605057E-2,-1.1567841E-2,-7.937779E-2,2.3727894E-3,-3.4453053E-2,-9.116182E-2,-6.892772E-3,6.047796E-2,-3.0060241E-2,-7.671177E-2,-1.4557088E-2,2.2843612E-2,-1.4201917E-2,1.4184517E-2,-3.8116295E-2,-6.9457362E-3,-8.788372E-3,9.831744E-3,3.4167282E-2,1.2786857E-2,2.2486674E-2,-2.9598514E-2,4.284558E-2,-2.0750111E-2,-2.3309382E-2,-2.8898146E-3,-1.4738875E-2,-5.1617246E-2,8.913628E-3,-4.687369E-2,4.8122376E-2,-8.673715E-3,4.0999766E-2,-3.4084264E-2,-9.10383E-3,1.4996722E-2,-2.2993179E-2,-6.4495313E-3,1.277414E-2,-3.6863368E-3,3.534661E-2,-1.0034553E-2,6.031638E-2,8.310581E-3,3.1754818E-2,1.8336046E-2,4.472596E-2,2.7142286E-3,3.4249377E-2,-2.5896287E-2,-8.515801E-3,1.688204E-2,4.9752623E-2,-1.8532276E-4,-9.927035E-4,3.3557415E-4,9.508476E-3,-1.154974E-2,2.1696871E-2,-2.447577E-3,1.3042758E-2,3.588247E-2,6.837029E-3,2.664868E-2,6.3134946E-2,2.3517905E-2,2.4121762E-3,1.4416886E-2],"split_indices":[4,0,4,162102,2,2,11,164808,2,165686,161968,4,4,4,4,1,0,0,0,17,0,162151,2,0,0,4,0,3,0,0,3084,164998,2,0,0,0,0,161617,0,0,0,11,67294,15,5,66698,0,2,2,0,164238,9685,4,2,2,162065,0,164409,0,51785,2,162725,0,0,0,2,2,1,0,4,4,7,4,2,0,164486,161625,4,4,0,3,15,4,106101,0,161771,0,166281,692,15,4793,4,0,9189,0,6026,2,0,0,9552,0,0,0,164637,0,0,0,166636,165026,0,4,11,4,0,0,161616,0,2,0,1270,111259,164275,163487,0,0,1,0,2,3,1,0,8575,30154,4,8,166496,1980,166587,4,2,0,34218,0,16146,0,1,0,70370,0,88571,2,158087,0,21,5,3,2,4068,0,0,0,0,0,0,0,0,0,0,0,0,0,0,0,0,0,0,0,0,0,0,0,0,0,0,0,0,0,0,0,0,0,0,0,0,0,0,0,0,0,0,0,0,0,0,0,0,0,0,0,0,0,0,0,0,0,0,0,0,0,0,0,0,0,0,0,0,0,0,0,0,0,0,0,0,0,0,0,0,0,0,0,0,0,0,0,0,0,0,0,0,0,0,0,0,0,0,0,0,0,0,0],"split_type":[0,0,0,0,0,0,0,0,0,0,0,0,0,0,0,0,0,0,0,0,0,0,0,0,0,0,0,0,0,0,0,0,0,0,0,0,0,0,0,0,0,0,0,0,0,0,0,0,0,0,0,0,0,0,0,0,0,0,0,0,0,0,0,0,0,0,0,0,0,0,0,0,0,0,0,0,0,0,0,0,0,0,0,0,0,0,0,0,0,0,0,0,0,0,0,0,0,0,0,0,0,0,0,0,0,0,0,0,0,0,0,0,0,0,0,0,0,0,0,0,0,0,0,0,0,0,0,0,0,0,0,0,0,0,0,0,0,0,0,0,0,0,0,0,0,0,0,0,0,0,0,0,0,0,0,0,0,0,0,0,0,0,0,0,0,0,0,0,0,0,0,0,0,0,0,0,0,0,0,0,0,0,0,0,0,0,0,0,0,0,0,0,0,0,0,0,0,0,0,0,0,0,0,0,0,0,0,0,0,0,0,0,0,0,0,0,0,0,0,0,0,0,0,0,0,0,0,0,0,0,0,0,0,0,0,0,0,0,0,0,0,0,0,0,0,0,0,0,0,0,0,0,0,0,0,0,0,0,0,0,0],"sum_hessian":[7.394E3,4.46E2,6.948E3,3.31E2,1.15E2,4.809E3,2.139E3,3.24E2,7E0,1.2E1,1.03E2,2.604E3,2.205E3,1.297E3,8.42E2,3.21E2,3E0,2E0,5E0,1E1,2E0,9.7E1,6E0,6.8E2,1.924E3,6.88E2,1.517E3,1.101E3,1.96E2,7.46E2,9.6E1,3.11E2,1E1,1E0,1E0,9E0,1E0,9.3E1,4E0,1E0,5E0,4.2E2,2.6E2,1.163E3,7.61E2,2.6E2,4.28E2,7.21E2,7.96E2,1.03E3,7.1E1,3.9E1,1.57E2,3.3E2,4.16E2,9.5E1,1E0,3.07E2,4E0,6E0,4E0,8.6E1,7E0,1E0,3E0,2.14E2,2.06E2,2.56E2,4E0,8.74E2,2.89E2,5.41E2,2.2E2,2.55E2,5E0,8.4E1,3.44E2,4.52E2,2.69E2,5.57E2,2.39E2,9.6E1,9.34E2,6.9E1,2E0,3.8E1,1E0,9.7E1,6E1,2.01E2,1.29E2,1.76E2,2.4E2,9.3E1,2E0,3.04E2,3E0,2E0,2E0,5E0,1E0,3E0,1E0,8.4E1,2E0,6E0,1E0,2.1E1,1.93E2,3E0,2.03E2,2.34E2,2.2E1,4.01E2,4.73E2,5.7E1,2.32E2,4.73E2,6.8E1,1.6E1,2.04E2,4.1E1,2.14E2,2E0,3E0,8.2E1,2E0,2.49E2,9.5E1,2.49E2,2.03E2,2.05E2,6.4E1,4.93E2,6.4E1,2.24E2,1.5E1,5.8E1,3.8E1,3.64E2,5.7E2,6.7E1,2E0,3.6E1,2E0,9.5E1,2E0,5.8E1,2E0,1.79E2,2.2E1,1.27E2,2E0,9.9E1,7.7E1,1.6E2,8E1,9.1E1,2E0,1E0,1E0,3.02E2,2E0,1E0,2E0,4E0,1E0,8.2E1,2E0,3E0,3E0,1.8E1,3E0,1.9E2,3E0,2E0,1E0,9.3E1,1.1E2,1.42E2,9.2E1,5E0,1.7E1,1.48E2,2.53E2,1.04E2,3.69E2,9E0,4.8E1,5.6E1,1.76E2,1.3E2,3.43E2,1E1,5.8E1,1.5E1,1E0,1.98E2,6E0,3.7E1,4E0,1.98E2,1.6E1,9E0,7.3E1,2.04E2,4.5E1,6.2E1,3.3E1,6.5E1,1.84E2,6.7E1,1.36E2,2.03E2,2E0,6.2E1,2E0,8.3E1,4.1E2,3.9E1,2.5E1,2.22E2,2E0,1.4E1,1E0,5.6E1,2E0,1.2E1,2.6E1,1.39E2,2.25E2,1.67E2,4.03E2,6.5E1,2E0,3.5E1,1E0,4.3E1,5.2E1,5.6E1,2E0,1.77E2,2E0,9E0,1.3E1,1.25E2,2E0,1E0,1E0,6.6E1,3.3E1,6.2E1,1.5E1,2.7E1,1.33E2,4.6E1,3.4E1,8.7E1,4E0,1E0,1E0],"tree_param":{"num_deleted":"0","num_feature":"166663","num_nodes":"261","size_leaf_vector":"1"}},{"base_weights":[-4.272316E-3,1.3294989E0,-7.103593E-2,1.800352E0,6.254466E-1,-2.2957231E-1,2.9939088E-1,1.8694373E0,-1.8063568E-1,7.4770945E-1,-2.898549E0,-4.349325E-1,1.0701628E-2,2.1040471E-1,8.224774E-1,1.9474878E0,-1.3087629E-1,8.693434E-1,-2.6859488E0,-1.7438896E-1,-1.3540709E-2,-6.30486E-1,-2.881423E-1,-1.9435632E-1,1.289041E-1,8.993675E-2,5.102382E-1,1.18846E0,6.792891E-1,2.0350885E0,-1.9810776E0,2.533491E0,5.0497836E-1,-1.7543106E-1,1.5118492E-2,8.790272E-1,-6.664738E-1,7.100893E-2,-4.014076E-1,8.292733E-1,-2.5524098E-1,4.350876E-1,-1.0455901E-2,4.813722E-1,-8.767863E-3,9.1416705E-1,3.3683378E-1,1.2118955E0,7.1962513E-3,4.9088705E-1,9.574351E-1,2.1108935E0,-1.373807E0,-1.5213776E-1,-1.2952042E-2,2.7237802E0,4.505496E-2,7.1578586E-1,-1.4956894E0,1.4015096E0,2.0854528E-1,-6.781955E-1,1.0356911E-1,2.7329543E-1,-3.2598004E-1,-4.4629818E-1,6.272691E-2,1.3149016E0,-1.0506509E-1,-4.8281634E-1,-1.1854733E-1,6.275827E-1,3.2223293E-1,-1.9416371E-1,1.8508883E-1,6.49324E-1,1.622702E-2,-1.1182624E-1,1.4046776E-1,1.1955055E0,7.688106E-1,2.3027764E-1,5.4121435E-1,4.220053E-2,1.2871513E0,6.3799953E-1,2.9636315E-1,7.696862E-1,1.1681854E0,2.1852522E0,-1.1964035E0,3.361516E-1,-1.312915E-1,2.799896E0,3.0036641E-2,-1.208714E-1,8.3515024E-1,-7.7318865E-1,-1.5823142E-1,1.739978E0,-2.6617814E-2,6.7838436E-1,-4.5266438E-1,-6.6727096E-1,-1.767369E-1,3.0109966E-1,-7.316405E-2,-4.7213495E-2,-5.5485815E-1,-3.2705674E-1,-6.318915E-1,4.7693613E-1,-1.7670761E-1,1.5384477E0,-6.421721E-2,1.9598672E-1,-1.1324801E0,-5.380359E-1,5.838179E-1,4.0005365E-1,-1.8458182E-1,6.438058E-1,-2.342368E-2,1.9001094E-1,4.995003E-1,-6.916152E-2,-3.5385913E-1,2.6616368E-1,-1.39447E-1,4.6557412E-1,8.050903E-1,2.4029377E-1,-2.7341482E-1,7.851919E-3,-2.4519724E-1,5.291193E-1,4.9410652E-2,1.2408421E0,5.6506474E-2,8.0553645E-1,2.8577566E-2,3.814999E-1,2.0460073E-2,5.865367E-1,-2.2394054E-2,1.309863E0,1.830074E-2,6.697326E-1,-1.7870791E-2,3.414399E-1,-2.6776916E-1,7.9967815E-1,3.3253353E-2,1.2232318E0,8.153486E-2,1.11543946E-1,-7.31632E-2,-7.729354E-2,5.0366404E-3,3.0036641E-2,-4.8252703E-3,1.4392787E-1,3.2633126E-2,4.565828E-2,-9.828644E-2,-1.6692046E-2,-7.703019E-2,9.505995E-2,-4.8668743E-3,5.9865262E-2,-6.9931387E-3,-4.2964276E-2,-1.7266214E-3,-3.2622553E-2,-1.3117263E-1,1.5937604E-2,-5.998469E-2,2.3167667E-3,-4.2505052E-2,-2.9447982E-2,1.901636E-2,-1.1902473E-2,-2.9994765E-2,-2.8498609E-2,-4.963486E-2,2.8354073E-2,-3.8189307E-2,-1.6556494E-2,1.8520175E-2,8.9465335E-2,-6.1604936E-2,-4.328448E-2,2.225368E-2,-2.6617814E-2,-7.33213E-2,-5.9726825E-3,-3.2200843E-2,4.2322606E-2,-3.744347E-2,2.2308959E-2,-5.342121E-2,-8.623338E-3,-9.4188906E-2,3.2981817E-2,-2.1282109E-2,1.1273073E-3,1.690947E-2,2.8191645E-2,1.5027841E-4,-1.6616343E-2,1.4848683E-3,-1.6528863E-2,-7.78769E-2,1.0137399E-2,2.8253604E-2,2.563713E-2,-1.0191597E-2,2.5086526E-2,-3.751022E-2,4.2065255E-2,9.670905E-3,1.5784701E-2,-3.9743718E-2,-1.9850625E-2,1.53872175E-2,1.1701102E-3,-8.2932286E-2,-1.4094422E-2,1.614347E-2,2.8195752E-2,-2.7597094E-2,9.691965E-3,-1.0690357E-2,1.1081112E-2,6.287294E-2,-3.5796165E-3,7.817603E-3,4.1450202E-2,1.7531336E-3,6.449771E-3,-2.6940107E-3,1.4716654E-2,3.761862E-2,-3.775213E-3,2.5236158E-2,3.2850694E-2,1.6701054E-2,6.615646E-2,1.1520684E-2,3.986458E-2,2.0178698E-2,1.8917581E-2,-2.1839207E-2,-1.585731E-2,-1.756525E-3,4.270179E-2,1.3841792E-2,-2.8122782E-3,5.3062798E-3,6.280094E-2,2.1102292E-2,5.374384E-3,7.407308E-4],"categories":[],"categories_nodes":[],"categories_segments":[],"categories_sizes":[],"default_left":[0,0,0,0,0,0,0,0,0,0,0,0,0,0,0,0,0,1,0,0,0,0,0,0,0,0,0,0,0,0,0,0,0,0,0,0,0,0,0,0,0,0,0,0,0,0,0,0,0,0,0,0,0,0,0,0,0,0,0,0,0,0,0,0,0,0,0,0,0,0,0,0,0,0,0,0,0,0,0,0,0,0,0,0,0,0,0,0,0,0,0,0,0,0,0,0,0,0,0,0,0,0,0,0,0,0,0,0,0,0,0,0,0,0,0,0,0,0,0,0,0,0,0,0,0,0,0,0,0,0,0,0,0,0,0,0,0,0,0,0,0,0,0,0,0,0,0,0,0,0,0,0,0,0,0,0,0,0,0,0,0,0,0,0,0,0,0,0,0,0,0,0,0,0,0,0,0,0,0,0,0,0,0,0,0,0,0,0,0,0,0,0,0,0,0,0,0,0,0,0,0,0,0,0,0,0,0,0,0,0,0,0,0,0,0,0,0,0,0,0,0,0,0,0,0,0,0,0,0,0,0,0,0,0,0,0,0,0,0,0,0,0,0,0,0,0,0,0,0,0,0,0,0,0,0,0,0,0,0,0,0,0,0],"id":3,"left_children":[1,3,5,7,9,11,13,15,-1,17,19,21,23,25,27,29,-1,31,33,-1,-1,35,37,39,41,43,45,47,49,51,53,55,57,-1,-1,59,61,63,65,67,69,71,73,75,77,79,81,83,-1,85,87,89,91,-1,-1,93,-1,95,97,99,101,103,-1,105,107,109,111,113,115,117,119,121,123,125,127,129,131,133,135,137,139,141,143,-1,145,147,149,151,153,155,157,159,-1,161,-1,-1,163,165,-1,167,-1,169,171,173,-1,175,-1,177,179,181,183,185,187,189,-1,191,193,195,197,199,201,203,-1,205,207,209,211,213,215,217,219,221,223,225,227,229,231,233,235,237,239,241,243,245,-1,247,-1,249,-1,251,253,255,257,259,261,-1,-1,-1,-1,-1,-1,-1,-1,-1,-1,-1,-1,-1,-1,-1,-1,-1,-1,-1,-1,-1,-1,-1,-1,-1,-1,-1,-1,-1,-1,-1,-1,-1,-1,-1,-1,-1,-1,-1,-1,-1,-1,-1,-1,-1,-1,-1,-1,-1,-1,-1,-1,-1,-1,-1,-1,-1,-1,-1,-1,-1,-1,-1,-1,-1,-1,-1,-1,-1,-1,-1,-1,-1,-1,-1,-1,-1,-1,-1,-1,-1,-1,-1,-1,-1,-1,-1,-1,-1,-1,-1,-1,-1,-1,-1,-1,-1,-1,-1,-1,-1,-1,-1,-1,-1,-1,-1,-1],"loss_changes":[6.594013E2,1.15895325E2,4.1420535E2,8.5660034E1,6.377934E1,2.4370828E2,9.822827E1,7.8291565E1,0E0,6.0388275E1,6.797161E0,7.626062E1,5.521579E1,6.5259674E1,1.5280838E1,7.4925476E1,0E0,8.057885E1,1.3352932E1,0E0,0E0,6.256955E1,6.1983185E1,5.212702E1,6.1662308E1,4.988392E1,3.5974365E1,1.9063034E0,1.1215942E1,5.509906E1,8.353043E0,5.000656E0,4.830724E1,0E0,0E0,9.166227E0,3.7187714E1,2.9480904E1,2.4155228E1,2.1463982E1,2.4424843E1,9.617012E0,3.5743496E1,2.0301182E1,1.588785E1,5.41951E0,7.8025627E0,1.2115402E0,0E0,3.6741982E0,2.622429E0,5.130786E1,1.1587212E1,0E0,0E0,1.7115479E0,0E0,4.016631E1,1.0817051E1,1.0744572E1,4.345688E0,3.2311707E1,0E0,1.2173639E1,7.8854456E0,2.3163055E1,1.0299404E1,1.9988487E1,5.480139E0,1.7689346E1,1.6956902E1,3.2533188E0,6.631981E0,1.0216177E1,1.2719351E1,5.0919724E0,4.6086373E0,9.754461E0,1.4908219E1,2.5634384E0,2.831478E0,7.6389036E0,5.821392E0,0E0,9.2224884E-1,2.640028E0,1.6171823E0,1.0777626E0,2.2929077E0,3.5559387E1,2.4222527E0,4.0139267E-1,0E0,1.4993744E0,0E0,0E0,2.3427673E1,2.520143E0,0E0,4.035839E0,0E0,3.5643027E0,9.904547E-1,3.0409698E1,0E0,6.7406464E0,0E0,4.3206134E0,2.392599E0,1.5520775E1,8.638611E0,4.6832504E0,5.698737E0,2.2360077E1,0E0,4.08759E0,2.0974636E-2,1.2388725E1,5.8840203E0,4.269827E0,8.691727E0,3.0572662E0,0E0,4.1116123E0,3.8950844E0,7.52856E0,5.7904873E0,7.2022495E0,4.177658E0,4.332632E0,2.0967407E0,3.3730159E0,2.3489063E0,8.4092045E0,6.1146507E0,3.320549E0,1.3080997E1,5.511856E-1,4.9563907E-2,1.7790527E0,5.6631703E-2,4.3044395E0,4.7782507E0,1.8983345E0,0E0,6.259384E-1,0E0,2.1906052E0,0E0,1.77389E0,4.6293527E-2,1.1277523E0,2.5535055E-2,4.681015E-1,3.6023464E-3,0E0,0E0,0E0,0E0,0E0,0E0,0E0,0E0,0E0,0E0,0E0,0E0,0E0,0E0,0E0,0E0,0E0,0E0,0E0,0E0,0E0,0E0,0E0,0E0,0E0,0E0,0E0,0E0,0E0,0E0,0E0,0E0,0E0,0E0,0E0,0E0,0E0,0E0,0E0,0E0,0E0,0E0,0E0,0E0,0E0,0E0,0E0,0E0,0E0,0E0,0E0,0E0,0E0,0E0,0E0,0E0,0E0,0E0,0E0,0E0,0E0,0E0,0E0,0E0,0E0,0E0,0E0,0E0,0E0,0E0,0E0,0E0,0E0,0E0,0E0,0E0,0E0,0E0,0E0,0E0,0E0,0E0,0E0,0E0,0E0,0E0,0E0,0E0,0E0,0E0,0E0,0E0,0E0,0E0,0E0,0E0,0E0,0E0,0E0,0E0,0E0,0E0,0E0,0E0,0E0,0E0,0E0,0E0],"parents":[2147483647,0,0,1,1,2,2,3,3,4,4,5,5,6,6,7,7,9,9,10,10,11,11,12,12,13,13,14,14,15,15,17,17,18,18,21,21,22,22,23,23,24,24,25,25,26,26,27,27,28,28,29,29,30,30,31,31,32,32,35,35,36,36,37,37,38,38,39,39,40,40,41,41,42,42,43,43,44,44,45,45,46,46,47,47,49,49,50,50,51,51,52,52,55,55,57,57,58,58,59,59,60,60,61,61,63,63,64,64,65,65,66,66,67,67,68,68,69,69,70,70,71,71,72,72,73,73,74,74,75,75,76,76,77,77,78,78,79,79,80,80,81,81,82,82,84,84,85,85,86,86,87,87,88,88,89,89,90,90,91,91,93,93,96,96,97,97,99,99,101,101,102,102,103,103,105,105,107,107,108,108,109,109,110,110,111,111,112,112,113,113,115,115,116,116,117,117,118,118,119,119,120,120,121,121,123,123,124,124,125,125,126,126,127,127,128,128,129,129,130,130,131,131,132,132,133,133,134,134,135,135,136,136,137,137,138,138,139,139,140,140,141,141,142,142,143,143,145,145,147,147,149,149,150,150,151,151,152,152,153,153,154,154],"right_children":[2,4,6,8,10,12,14,16,-1,18,20,22,24,26,28,30,-1,32,34,-1,-1,36,38,40,42,44,46,48,50,52,54,56,58,-1,-1,60,62,64,66,68,70,72,74,76,78,80,82,84,-1,86,88,90,92,-1,-1,94,-1,96,98,100,102,104,-1,106,108,110,112,114,116,118,120,122,124,126,128,130,132,134,136,138,140,142,144,-1,146,148,150,152,154,156,158,160,-1,162,-1,-1,164,166,-1,168,-1,170,172,174,-1,176,-1,178,180,182,184,186,188,190,-1,192,194,196,198,200,202,204,-1,206,208,210,212,214,216,218,220,222,224,226,228,230,232,234,236,238,240,242,244,246,-1,248,-1,250,-1,252,254,256,258,260,262,-1,-1,-1,-1,-1,-1,-1,-1,-1,-1,-1,-1,-1,-1,-1,-1,-1,-1,-1,-1,-1,-1,-1,-1,-1,-1,-1,-1,-1,-1,-1,-1,-1,-1,-1,-1,-1,-1,-1,-1,-1,-1,-1,-1,-1,-1,-1,-1,-1,-1,-1,-1,-1,-1,-1,-1,-1,-1,-1,-1,-1,-1,-1,-1,-1,-1,-1,-1,-1,-1,-1,-1,-1,-1,-1,-1,-1,-1,-1,-1,-1,-1,-1,-1,-1,-1,-1,-1,-1,-1,-1,-1,-1,-1,-1,-1,-1,-1,-1,-1,-1,-1,-1,-1,-1,-1,-1,-1],"split_conditions":[2E0,1.4332E4,1.304E3,1E0,1.1374323E-1,1.06E2,7.819E3,1.19799E-1,-1.8063568E-1,1E0,5.07E5,1.51E2,1.08E2,1.2E2,3.4E7,1.0117448E-1,-1.3087629E-1,6.8E1,9.523464E6,-1.7438896E-1,-1.3540709E-2,3.3E1,3.5E6,3E0,8E6,8.7E6,2.4E7,1.4032525E-1,1.3128E4,7.805378E-2,1.5E3,1.0105511E-1,1.803E0,-1.7543106E-1,1.5118492E-2,5.564E3,1E0,1E0,1E0,1.35E2,2.2E1,3E6,1.19E2,1E0,2.993E3,6E6,1.37E2,1.06E2,7.1962513E-3,5.2402867E8,1.36E2,6.264343E-2,9.1E1,-1.5213776E-1,-1.2952042E-2,1E0,4.505496E-2,7E1,2.379E0,1.0297124E-1,1E0,1E0,1.0356911E-1,7.9672925E-2,8.58572E5,2E7,2E7,6.614484E-2,1.77E2,1E0,8E5,1E0,3.83E2,2.4E7,4.5E7,9.9E1,3.2948112E7,3.5E7,7.89E7,7.257767E-2,1E0,6.2E7,1E0,4.220053E-2,1E0,6.3002124E-2,1E0,7.544663E-2,1.6873814E-1,8.685004E-2,7.027E3,1.5E3,-1.312915E-1,1E0,3.0036641E-2,-1.208714E-1,1.5695837E-1,1.8E6,-1.5823142E-1,1E0,-2.6617814E-2,6E0,4E0,1.5121864E-1,-1.767369E-1,1E0,-7.316405E-2,2.2209E1,3.667E1,1E0,1E0,7.018354E-2,2.6964E1,9.849409E-2,-6.421721E-2,1E2,7.888E3,4.36E5,1E0,1E0,1E0,8.782587E-2,-2.342368E-2,1.19E2,1E0,2.56E2,1E0,1.49E2,1E0,9.021383E-2,1.5027014E8,8.4930114E-2,1.05E2,1E0,5.7766E1,1E0,1E0,1.0549E1,3.025379E6,1.5427898E-1,1.672E3,4.853E3,6.7668E1,1.16E8,-2.2394054E-2,1E0,1.830074E-2,1.1E8,-1.7870791E-2,1E0,1.16E8,1E0,4.2E7,1E0,2.2E8,1.11543946E-1,-7.31632E-2,-7.729354E-2,5.0366404E-3,3.0036641E-2,-4.8252703E-3,1.4392787E-1,3.2633126E-2,4.565828E-2,-9.828644E-2,-1.6692046E-2,-7.703019E-2,9.505995E-2,-4.8668743E-3,5.9865262E-2,-6.9931387E-3,-4.2964276E-2,-1.7266214E-3,-3.2622553E-2,-1.3117263E-1,1.5937604E-2,-5.998469E-2,2.3167667E-3,-4.2505052E-2,-2.9447982E-2,1.901636E-2,-1.1902473E-2,-2.9994765E-2,-2.8498609E-2,-4.963486E-2,2.8354073E-2,-3.8189307E-2,-1.6556494E-2,1.8520175E-2,8.9465335E-2,-6.1604936E-2,-4.328448E-2,2.225368E-2,-2.6617814E-2,-7.33213E-2,-5.9726825E-3,-3.2200843E-2,4.2322606E-2,-3.744347E-2,2.2308959E-2,-5.342121E-2,-8.623338E-3,-9.4188906E-2,3.2981817E-2,-2.1282109E-2,1.1273073E-3,1.690947E-2,2.8191645E-2,1.5027841E-4,-1.6616343E-2,1.4848683E-3,-1.6528863E-2,-7.78769E-2,1.0137399E-2,2.8253604E-2,2.563713E-2,-1.0191597E-2,2.5086526E-2,-3.751022E-2,4.2065255E-2,9.670905E-3,1.5784701E-2,-3.9743718E-2,-1.9850625E-2,1.53872175E-2,1.1701102E-3,-8.2932286E-2,-1.4094422E-2,1.614347E-2,2.8195752E-2,-2.7597094E-2,9.691965E-3,-1.0690357E-2,1.1081112E-2,6.287294E-2,-3.5796165E-3,7.817603E-3,4.1450202E-2,1.7531336E-3,6.449771E-3,-2.6940107E-3,1.4716654E-2,3.761862E-2,-3.775213E-3,2.5236158E-2,3.2850694E-2,1.6701054E-2,6.615646E-2,1.1520684E-2,3.986458E-2,2.0178698E-2,1.8917581E-2,-2.1839207E-2,-1.585731E-2,-1.756525E-3,4.270179E-2,1.3841792E-2,-2.8122782E-3,5.3062798E-3,6.280094E-2,2.1102292E-2,5.374384E-3,7.407308E-4],"split_indices":[4,1,4,136094,165409,2,4,165562,0,161617,0,4,4,2,0,165303,0,2,1,0,0,2,0,4,0,0,0,162507,4,163297,0,162681,3,0,0,0,51253,15,7,2,4,0,2,15,4,0,2,2,0,1,2,164395,2,0,0,7287,0,2,3,165417,161616,2422,0,166420,0,0,0,165786,2,161660,0,30372,4,0,0,2,1,0,1,164304,2659,0,56888,0,130594,166281,8048,166495,165053,161664,1,0,0,1067,0,0,164189,1,0,4731,0,4,4,162598,0,83163,0,3,3,15,19,162129,3,163302,0,0,0,0,125487,1576,60851,166484,0,2,15,4,102519,2,161616,165856,1,162812,2,39220,3,7294,5,3,0,164088,4,4,3,0,0,5293,0,0,0,126293,0,34907,0,3450,0,0,0,0,0,0,0,0,0,0,0,0,0,0,0,0,0,0,0,0,0,0,0,0,0,0,0,0,0,0,0,0,0,0,0,0,0,0,0,0,0,0,0,0,0,0,0,0,0,0,0,0,0,0,0,0,0,0,0,0,0,0,0,0,0,0,0,0,0,0,0,0,0,0,0,0,0,0,0,0,0,0,0,0,0,0,0,0,0,0,0,0,0,0,0,0,0,0,0,0,0,0,0,0,0,0,0,0,0],"split_type":[0,0,0,0,0,0,0,0,0,0,0,0,0,0,0,0,0,0,0,0,0,0,0,0,0,0,0,0,0,0,0,0,0,0,0,0,0,0,0,0,0,0,0,0,0,0,0,0,0,0,0,0,0,0,0,0,0,0,0,0,0,0,0,0,0,0,0,0,0,0,0,0,0,0,0,0,0,0,0,0,0,0,0,0,0,0,0,0,0,0,0,0,0,0,0,0,0,0,0,0,0,0,0,0,0,0,0,0,0,0,0,0,0,0,0,0,0,0,0,0,0,0,0,0,0,0,0,0,0,0,0,0,0,0,0,0,0,0,0,0,0,0,0,0,0,0,0,0,0,0,0,0,0,0,0,0,0,0,0,0,0,0,0,0,0,0,0,0,0,0,0,0,0,0,0,0,0,0,0,0,0,0,0,0,0,0,0,0,0,0,0,0,0,0,0,0,0,0,0,0,0,0,0,0,0,0,0,0,0,0,0,0,0,0,0,0,0,0,0,0,0,0,0,0,0,0,0,0,0,0,0,0,0,0,0,0,0,0,0,0,0,0,0,0,0,0,0,0,0,0,0,0,0,0,0,0,0,0,0,0,0,0,0],"sum_hessian":[7.403E3,3.52E2,7.051E3,2.1E2,1.42E2,4.938E3,2.113E3,2.08E2,2E0,1.38E2,4E0,2.662E3,2.276E3,1.807E3,3.06E2,2.05E2,3E0,1.34E2,4E0,3E0,1E0,1.14E3,1.522E3,8.32E2,1.444E3,1.29E3,5.17E2,8.4E1,2.22E2,2.01E2,4E0,2.3E1,1.11E2,3E0,1E0,2.6E1,1.114E3,3.65E2,1.157E3,4.6E1,7.86E2,4.51E2,9.93E2,2.59E2,1.031E3,1.54E2,3.63E2,8.2E1,2E0,1.34E2,8.8E1,1.97E2,4E0,2E0,2E0,2E1,3E0,1.01E2,1E1,1.4E1,1.2E1,1.11E3,4E0,2.42E2,1.23E2,1.055E3,1.02E2,3E1,1.6E1,2.94E2,4.92E2,1.65E2,2.86E2,5.12E2,4.81E2,1.9E2,6.9E1,6.1E2,4.21E2,5E1,1.04E2,2.4E2,1.23E2,1.6E1,6.6E1,7.5E1,5.9E1,4.9E1,3.9E1,1.93E2,4E0,2E0,2E0,1.9E1,1E0,3E0,9.8E1,8E0,2E0,1.2E1,2E0,7E0,5E0,1.107E3,3E0,2.39E2,3E0,5.6E1,6.7E1,6.44E2,4.11E2,3.7E1,6.5E1,2.8E1,2E0,1.3E1,3E0,2.8E2,1.4E1,5.5E1,4.37E2,1.63E2,2E0,1.65E2,1.21E2,2.88E2,2.24E2,3.85E2,9.6E1,8.9E1,1.01E2,3.9E1,3E1,3.22E2,2.88E2,7.9E1,3.42E2,4.8E1,2E0,9.9E1,5E0,1.39E2,1.01E2,1.18E2,5E0,6.4E1,2E0,7.3E1,2E0,5.5E1,4E0,4.7E1,2E0,3.7E1,2E0,1.91E2,2E0,3E0,1E0,1E0,1E0,1.8E1,1E0,9.6E1,2E0,6E0,2E0,1.1E1,1E0,4E0,3E0,2E0,3E0,1.1E3,7E0,2.37E2,2E0,5.1E1,5E0,6.5E1,2E0,4.87E2,1.57E2,3.53E2,5.8E1,3.5E1,2E0,5.1E1,1.4E1,2.6E1,2E0,2E0,1.1E1,2E0,1E0,5.7E1,2.23E2,1.2E1,2E0,5.4E1,1E0,4.35E2,2E0,1.61E2,2E0,7.8E1,8.7E1,1.07E2,1.4E1,7.8E1,2.1E2,2.21E2,3E0,3.19E2,6.6E1,8E0,8.8E1,8.7E1,2E0,9.5E1,6E0,3.7E1,2E0,2.5E1,5E0,3.2E2,2E0,2.71E2,1.7E1,7.7E1,2E0,2.21E2,1.21E2,1E0,4.7E1,1E0,1E0,9.6E1,3E0,2E0,3E0,1.14E2,2.5E1,8.5E1,1.6E1,9.1E1,2.7E1,6.3E1,1E0,4.8E1,2.5E1,5.3E1,2E0,3E0,1E0,4.2E1,5E0,1E0,1E0,3.5E1,2E0,1E0,1E0],"tree_param":{"num_deleted":"0","num_feature":"166663","num_nodes":"263","size_leaf_vector":"1"}},{"base_weights":[9.807489E-4,1.1082057E0,-6.933198E-2,1.716751E0,4.248351E-1,-2.8494543E-1,2.1073969E-1,1.7719301E0,-9.495165E-2,1.9877993E0,1.5329772E-1,-4.9956438E-1,-8.069873E-2,2.319662E-2,4.7065735E-1,1.826842E0,-1.8010259E0,2.21404E0,-1.1998563E-1,2.3176011E-1,-1.6784938E-1,-6.823282E-1,-3.4488392E-1,-3.6032954E-1,5.474188E-4,-1.2010928E-1,4.3819475E-1,4.1906878E-1,1.1127025E0,1.887233E0,-1.2440473E0,-1.3459866E-1,-3.0335952E-2,2.3081627E0,-1.2887848E-2,3.2936698E-1,-2.6049304E0,-6.2519366E-1,-1.4527473E0,-3.7115088E-1,8.3613634E-1,-3.9608204E-1,7.941665E-1,-1.6084234E-1,1.4814252E-1,-1.9449562E-1,1.30386E-1,3.453168E-1,8.7352437E-1,3.301015E-1,6.314339E-1,1.1502147E0,3.708229E-1,1.9493155E0,-1.2218422E0,-1.6500132E-1,1.2266144E0,2.4410572E0,4.33654E-2,4.3910307E-1,-1.1599993E-1,-1.5872996E-1,6.0853246E-3,-8.073381E-1,-4.2083955E-1,-1.9500645E0,-7.27407E-1,-4.7319892E-1,-1.03360616E-1,8.9114726E-1,8.617401E-3,-3.168248E-1,-8.127517E-1,7.0338346E-2,4.084497E-1,-9.5443115E-2,-3.8472468E-1,6.635782E-2,2.7946392E-1,-2.5536305E-1,2.3166998E-1,4.553663E-1,5.26022E-2,8.4956056E-1,2.859375E-1,9.0085804E-1,-1.19214535E-1,2.6367402E-1,5.6962067E-1,5.4809576E-1,8.2353497E-1,1.1698351E0,1.9781764E-1,-2.1777948E-2,2.8628392E-2,2.0324821E0,-5.086586E-1,3.2774782E-1,-1.18207574E-1,7.724804E-2,1.4748037E-2,2.496398E0,2.643844E-2,5.0725925E-1,-1.7165677E-1,-1.1898393E-1,-9.0303224E-1,-4.4421446E-1,1.1452951E0,2.5575542E-1,-2.0915008E0,-9.3942386E-1,1.7547436E-2,-5.1901126E-1,-2.0832304E-2,-2.1310705E-1,1.4633371E-1,1.2861164E-2,9.44338E-1,1.1148574E0,-3.3536568E-1,-1.4418641E0,-4.312034E-1,1.2251163E-2,2.9616678E-2,-1.8892094E-1,5.880424E-2,-4.0648225E-1,3.07198E-2,1.2533407E-1,-1.628132E-1,-4.666174E-2,3.5827944E-1,1.5513508E-1,-2.946257E-1,6.8301964E-1,1.0297536E-1,3.2612383E-1,8.3826244E-1,3.7112671E-3,7.987564E-1,8.8063306E-1,-8.279848E-3,2.0111004E-1,6.0090923E-1,9.2419297E-1,1.7198244E-2,5.1736236E-3,-1.4114714E-2,3.4278408E-1,6.867479E-2,8.104781E-1,4.0897983E-1,5.634438E-1,-2.5874192E-2,8.456709E-1,-1.9621961E-1,1.1892356E0,2.3020871E-1,1.8473984E-3,1.2988925E-2,-5.7765483E-3,4.143202E-3,1.0374596E-1,-8.1487924E-2,-4.3994214E-2,5.224804E-2,2.9285729E-2,-4.7046426E-3,1.276424E-1,2.8540004E-2,2.8585566E-2,-1.5711193E-1,-1.2146591E-2,4.565439E-2,-4.6327E-2,3.583526E-2,-3.7070643E-2,-1.626166E-2,1.391685E-2,6.3150965E-2,-1.1351657E-2,3.0533314E-2,-1.1193549E-1,6.341267E-3,-5.6567717E-2,1.0355085E-2,-2.5295844E-2,-1.0809987E-1,1.7943397E-3,-6.403074E-2,-1.1931332E-2,5.3893473E-2,4.2781555E-3,3.67874E-2,4.8582666E-2,1.1316585E-2,8.7212615E-2,5.69218E-3,-1.542932E-2,-6.861251E-2,-7.936255E-2,-1.2271202E-2,-4.1744005E-2,1.4385679E-3,1.4119461E-2,-1.1012402E-2,3.84359E-3,-6.368532E-2,-2.1572364E-2,2.4184056E-2,7.266006E-3,-2.427129E-2,-3.488511E-2,-5.2397638E-3,1.697E-2,-8.8547105E-3,1.8570637E-2,-2.7606178E-2,1.5391486E-2,-1.2376721E-2,-2.4165405E-2,-1.1010132E-2,3.671345E-2,5.5927434E-4,-6.199434E-4,2.6879633E-2,1.8857976E-2,-2.57048E-2,4.8746385E-2,1.2643374E-2,1.0197709E-3,-4.7202107E-2,4.318065E-2,-2.7308704E-3,4.622489E-2,3.035609E-3,1.0581486E-3,1.8458402E-2,2.1564724E-2,4.389425E-2,4.8123617E-2,1.617843E-2,-2.7419687E-3,4.031837E-3,1.7593859E-2,-5.8742363E-2,1.12372935E-2,-4.0067127E-3,4.1987266E-2,-3.095572E-2,2.167944E-2,-9.726344E-3,2.8727641E-2,-2.5654802E-2,4.3358665E-2,-7.289958E-3,-1.7124224E-2,2.4077536E-3,6.0399394E-2,1.3700509E-2,1.5098798E-2,2.1668554E-3],"categories":[],"categories_nodes":[],"categories_segments":[],"categories_sizes":[],"default_left":[0,0,0,0,1,0,0,0,0,0,0,0,0,0,0,0,0,0,0,0,0,0,0,0,0,0,0,0,0,0,0,0,0,0,0,0,0,0,0,0,0,0,0,0,0,0,0,0,0,0,0,0,0,0,0,0,0,0,0,0,0,0,0,0,0,0,0,0,0,0,0,0,0,0,0,0,0,0,0,0,0,0,0,0,0,0,0,0,0,0,0,0,0,0,0,0,0,0,0,0,0,0,0,0,0,0,0,0,0,0,0,0,0,0,0,0,0,0,0,0,0,0,0,0,0,0,0,0,0,0,0,0,0,0,0,0,0,0,0,0,0,0,0,0,0,0,0,0,0,0,0,0,0,0,0,0,0,0,0,0,0,0,0,0,0,0,0,0,0,0,0,0,0,0,0,0,0,0,0,0,0,0,0,0,0,0,0,0,0,0,0,0,0,0,0,0,0,0,0,0,0,0,0,0,0,0,0,0,0,0,0,0,0,0,0,0,0,0,0,0,0,0,0,0,0,0,0,0,0,0,0,0,0,0,0,0,0,0,0,0,0,0,0,0,0,0,0,0,0,0,0,0,0,0,0,0,0,0,0,0,0,0,0],"id":4,"left_children":[1,3,5,7,9,11,13,15,-1,17,19,21,23,25,27,29,31,33,-1,35,-1,37,39,41,43,45,47,49,51,53,55,-1,-1,57,-1,59,61,63,65,67,69,71,73,75,77,79,81,83,85,87,89,91,93,95,97,-1,99,101,-1,103,-1,-1,-1,105,107,109,111,113,115,117,-1,119,121,-1,123,125,127,129,131,133,135,137,139,141,143,145,147,149,151,153,155,157,159,161,-1,163,165,167,-1,-1,-1,169,-1,171,-1,173,175,177,179,181,183,185,-1,187,189,191,193,-1,195,197,199,201,203,-1,-1,205,207,209,-1,211,213,215,217,219,221,223,225,227,229,231,233,235,-1,237,239,241,243,-1,-1,245,247,249,251,253,-1,255,257,259,261,-1,-1,-1,-1,-1,-1,-1,-1,-1,-1,-1,-1,-1,-1,-1,-1,-1,-1,-1,-1,-1,-1,-1,-1,-1,-1,-1,-1,-1,-1,-1,-1,-1,-1,-1,-1,-1,-1,-1,-1,-1,-1,-1,-1,-1,-1,-1,-1,-1,-1,-1,-1,-1,-1,-1,-1,-1,-1,-1,-1,-1,-1,-1,-1,-1,-1,-1,-1,-1,-1,-1,-1,-1,-1,-1,-1,-1,-1,-1,-1,-1,-1,-1,-1,-1,-1,-1,-1,-1,-1,-1,-1,-1,-1,-1,-1,-1,-1,-1,-1,-1,-1,-1,-1],"loss_changes":[5.7758295E2,1.834975E2,4.213213E2,5.0051697E1,8.881995E1,1.7275809E2,1.4793248E2,4.8611816E1,0E0,3.6084732E1,5.0354584E1,5.409958E1,4.5915142E1,1.0496067E2,4.16651E1,4.463141E1,2.6229868E0,7.574478E0,0E0,4.986583E1,0E0,3.782724E1,3.2666107E1,1.9095203E1,3.73503E1,2.4472416E1,1.801429E1,2.2067062E1,2.1894379E0,4.561798E1,2.9446001E1,0E0,0E0,3.4358368E0,0E0,5.1024452E1,9.706047E0,3.0219452E1,2.0224953E1,2.7852432E1,6.8626976E-1,1.4339149E1,2.73347E0,1.0929939E1,8.77758E0,2.6310032E1,7.584786E0,1.0985195E1,2.2510757E0,1.3103378E1,5.1038666E0,1.4316864E0,4.8770082E-1,4.600653E1,9.6254015E0,0E0,4.3406296E-1,1.431488E0,0E0,4.5551697E1,0E0,0E0,0E0,2.8414917E1,1.4749374E1,1.1454315E1,6.2740593E0,1.5304199E1,7.78625E0,4.651909E-1,0E0,1.027504E1,1.618084E1,0E0,1.5537941E-1,8.388378E0,3.92354E0,6.8593235E0,8.087702E0,1.4325592E1,7.306622E0,2.596837E0,8.898199E0,1.3760242E0,8.883202E0,1.5718498E0,1.3815689E-1,1.0065327E1,6.633007E0,4.298439E0,2.490982E0,1.3121643E0,2.030459E-2,3.900487E-2,0E0,3.6485107E1,5.5333924E0,3.8157415E-1,0E0,0E0,0E0,1.2603302E0,0E0,4.0372154E1,0E0,7.1296654E0,1.5133057E1,1.3337509E1,2.608266E-1,6.526822E-1,1.1060318E1,5.0754757E0,0E0,1.33420105E1,4.9762635E0,6.74741E0,3.0533051E0,0E0,1.527214E-1,2.9515934E0,9.822575E0,4.1330643E0,8.37967E0,0E0,0E0,5.4070463E0,5.394458E0,3.8976898E0,0E0,4.989832E0,3.1543312E0,3.1821148E0,3.2300873E0,4.872065E0,1.1253815E1,9.558563E-1,5.0210295E0,2.123551E0,8.735151E-1,3.6561198E0,8.7737083E-1,1.310566E0,0E0,8.06668E0,2.9568958E0,1.412941E0,1.8131943E-2,0E0,0E0,6.8303986E0,4.4307194E0,3.4905548E0,1.7180309E0,3.1889725E0,0E0,2.2796555E0,1.2372265E-1,1.1278152E0,2.714701E-2,0E0,0E0,0E0,0E0,0E0,0E0,0E0,0E0,0E0,0E0,0E0,0E0,0E0,0E0,0E0,0E0,0E0,0E0,0E0,0E0,0E0,0E0,0E0,0E0,0E0,0E0,0E0,0E0,0E0,0E0,0E0,0E0,0E0,0E0,0E0,0E0,0E0,0E0,0E0,0E0,0E0,0E0,0E0,0E0,0E0,0E0,0E0,0E0,0E0,0E0,0E0,0E0,0E0,0E0,0E0,0E0,0E0,0E0,0E0,0E0,0E0,0E0,0E0,0E0,0E0,0E0,0E0,0E0,0E0,0E0,0E0,0E0,0E0,0E0,0E0,0E0,0E0,0E0,0E0,0E0,0E0,0E0,0E0,0E0,0E0,0E0,0E0,0E0,0E0,0E0,0E0,0E0,0E0,0E0,0E0,0E0,0E0,0E0,0E0,0E0,0E0,0E0,0E0,0E0],"parents":[2147483647,0,0,1,1,2,2,3,3,4,4,5,5,6,6,7,7,9,9,10,10,11,11,12,12,13,13,14,14,15,15,16,16,17,17,19,19,21,21,22,22,23,23,24,24,25,25,26,26,27,27,28,28,29,29,30,30,33,33,35,35,36,36,37,37,38,38,39,39,40,40,41,41,42,42,43,43,44,44,45,45,46,46,47,47,48,48,49,49,50,50,51,51,52,52,53,53,54,54,56,56,57,57,59,59,63,63,64,64,65,65,66,66,67,67,68,68,69,69,71,71,72,72,74,74,75,75,76,76,77,77,78,78,79,79,80,80,81,81,82,82,83,83,84,84,85,85,86,86,87,87,88,88,89,89,90,90,91,91,92,92,93,93,95,95,96,96,97,97,101,101,103,103,105,105,106,106,107,107,108,108,109,109,110,110,111,111,113,113,114,114,115,115,116,116,118,118,119,119,120,120,121,121,122,122,125,125,126,126,127,127,129,129,130,130,131,131,132,132,133,133,134,134,135,135,136,136,137,137,138,138,139,139,140,140,141,141,143,143,144,144,145,145,146,146,149,149,150,150,151,151,152,152,153,153,155,155,156,156,157,157,158,158],"right_children":[2,4,6,8,10,12,14,16,-1,18,20,22,24,26,28,30,32,34,-1,36,-1,38,40,42,44,46,48,50,52,54,56,-1,-1,58,-1,60,62,64,66,68,70,72,74,76,78,80,82,84,86,88,90,92,94,96,98,-1,100,102,-1,104,-1,-1,-1,106,108,110,112,114,116,118,-1,120,122,-1,124,126,128,130,132,134,136,138,140,142,144,146,148,150,152,154,156,158,160,162,-1,164,166,168,-1,-1,-1,170,-1,172,-1,174,176,178,180,182,184,186,-1,188,190,192,194,-1,196,198,200,202,204,-1,-1,206,208,210,-1,212,214,216,218,220,222,224,226,228,230,232,234,236,-1,238,240,242,244,-1,-1,246,248,250,252,254,-1,256,258,260,262,-1,-1,-1,-1,-1,-1,-1,-1,-1,-1,-1,-1,-1,-1,-1,-1,-1,-1,-1,-1,-1,-1,-1,-1,-1,-1,-1,-1,-1,-1,-1,-1,-1,-1,-1,-1,-1,-1,-1,-1,-1,-1,-1,-1,-1,-1,-1,-1,-1,-1,-1,-1,-1,-1,-1,-1,-1,-1,-1,-1,-1,-1,-1,-1,-1,-1,-1,-1,-1,-1,-1,-1,-1,-1,-1,-1,-1,-1,-1,-1,-1,-1,-1,-1,-1,-1,-1,-1,-1,-1,-1,-1,-1,-1,-1,-1,-1,-1,-1,-1,-1,-1,-1,-1],"split_conditions":[3E0,1.4332E4,7.11E2,1E0,6.5E1,1E0,1E0,8.011176E-2,-9.495165E-2,1E0,1.1374323E-1,1.33E2,3.7E1,4.687E3,8.395E3,1.2333486E-1,1.8E3,1E0,-1.1998563E-1,7.3818386E-2,-1.6784938E-1,1E0,1E0,1E0,1.09E2,1.13E2,1.3128E4,1.26E2,7.123369E-2,7.805378E-2,1E0,-1.3459866E-1,-3.0335952E-2,1.0105511E-1,-1.2887848E-2,9.892058E-2,1E0,9.9E1,2.4E1,1.06E2,6.9185294E-2,1E0,5E0,1E0,1.29E2,1E0,2.6330482E7,8.771382E7,1E0,3.063E3,1.47E2,1E0,1.23E2,1E0,9.1E1,-1.6500132E-1,1E1,1.01215936E-1,4.33654E-2,1E0,-1.1599993E-1,-1.5872996E-1,6.0853246E-3,7.3E1,4.703829E-2,5.851E4,4.7712192E-2,1E0,1.22E2,2.97835E5,8.617401E-3,1E1,2.632E0,7.0338346E-2,8.58281E5,2.65E2,1E0,1E0,7.6E1,8.307227E6,4.0909908E7,1.929E3,1.88422E2,1E0,1E0,1.6861762E-1,4.7122288E8,1E0,7.726335E7,1E0,6.370752E-2,1.8529686E-1,5.2402867E8,4.0202784E8,2.8628392E-2,7.73585E-2,1.7896757E-1,1E1,-1.18207574E-1,7.724804E-2,1.4748037E-2,1E0,2.643844E-2,1.7983603E-1,-1.7165677E-1,8.955228E-2,5.281007E-2,1.8E1,1E0,1.8479E4,1.9369139E-1,1.2121062E-1,1.7547436E-2,1E0,6.7302376E-2,3.4800205E-1,3.058E1,1.2861164E-2,1E0,5E2,5.1367234E-2,1E0,5.1E6,1.2251163E-2,2.9616678E-2,4.316E0,1E0,5.3851865E-2,3.07198E-2,1.3955696E-1,6.6716E5,4.463E0,8.974478E-2,2.1656E1,9.3E1,1E0,5.1576E1,1.706E3,3.3857E1,1.0989255E-1,1E0,6.360372E-2,-8.279848E-3,6.775E3,9.9E1,1E0,4.7122288E8,5.1736236E-3,-1.4114714E-2,1.8978602E-1,2.75E7,1E0,4.7122288E8,1E0,-2.5874192E-2,1.0724307E-1,7.16E7,1E0,2.2593344E8,1.8473984E-3,1.2988925E-2,-5.7765483E-3,4.143202E-3,1.0374596E-1,-8.1487924E-2,-4.3994214E-2,5.224804E-2,2.9285729E-2,-4.7046426E-3,1.276424E-1,2.8540004E-2,2.8585566E-2,-1.5711193E-1,-1.2146591E-2,4.565439E-2,-4.6327E-2,3.583526E-2,-3.7070643E-2,-1.626166E-2,1.391685E-2,6.3150965E-2,-1.1351657E-2,3.0533314E-2,-1.1193549E-1,6.341267E-3,-5.6567717E-2,1.0355085E-2,-2.5295844E-2,-1.0809987E-1,1.7943397E-3,-6.403074E-2,-1.1931332E-2,5.3893473E-2,4.2781555E-3,3.67874E-2,4.8582666E-2,1.1316585E-2,8.7212615E-2,5.69218E-3,-1.542932E-2,-6.861251E-2,-7.936255E-2,-1.2271202E-2,-4.1744005E-2,1.4385679E-3,1.4119461E-2,-1.1012402E-2,3.84359E-3,-6.368532E-2,-2.1572364E-2,2.4184056E-2,7.266006E-3,-2.427129E-2,-3.488511E-2,-5.2397638E-3,1.697E-2,-8.8547105E-3,1.8570637E-2,-2.7606178E-2,1.5391486E-2,-1.2376721E-2,-2.4165405E-2,-1.1010132E-2,3.671345E-2,5.5927434E-4,-6.199434E-4,2.6879633E-2,1.8857976E-2,-2.57048E-2,4.8746385E-2,1.2643374E-2,1.0197709E-3,-4.7202107E-2,4.318065E-2,-2.7308704E-3,4.622489E-2,3.035609E-3,1.0581486E-3,1.8458402E-2,2.1564724E-2,4.389425E-2,4.8123617E-2,1.617843E-2,-2.7419687E-3,4.031837E-3,1.7593859E-2,-5.8742363E-2,1.12372935E-2,-4.0067127E-3,4.1987266E-2,-3.095572E-2,2.167944E-2,-9.726344E-3,2.8727641E-2,-2.5654802E-2,4.3358665E-2,-7.289958E-3,-1.7124224E-2,2.4077536E-3,6.0399394E-2,1.3700509E-2,1.5098798E-2,2.1668554E-3],"split_indices":[4,1,4,6837,2,11,11,164251,0,23,165409,4,4,4,4,165922,1,47491,0,165013,0,161648,10,161660,2,2,4,2,163297,163297,15,0,0,162681,0,162129,7537,2,4,2,166268,5,4,21,2,7,1,1,128890,4,2,9189,2,147877,2,0,1,161763,0,91006,0,0,0,2,162810,1,164702,7,2,1,0,2,3,0,1,4,46589,21,4,1,1,4,3,12028,7,161757,1,21,1,91380,162996,163534,1,1,0,162450,161761,1,0,0,0,14,0,162483,0,162563,162425,4,5,1,166641,163487,0,1249,164232,164702,3,0,3598,1,165489,6,1,0,0,3,129348,164713,0,162129,1,3,166033,3,2,115023,3,4,3,163138,10037,163770,0,4,2,143199,1,0,0,164296,1,2354,1,91385,0,163547,1,1618,1,0,0,0,0,0,0,0,0,0,0,0,0,0,0,0,0,0,0,0,0,0,0,0,0,0,0,0,0,0,0,0,0,0,0,0,0,0,0,0,0,0,0,0,0,0,0,0,0,0,0,0,0,0,0,0,0,0,0,0,0,0,0,0,0,0,0,0,0,0,0,0,0,0,0,0,0,0,0,0,0,0,0,0,0,0,0,0,0,0,0,0,0,0,0,0,0,0,0,0,0,0,0,0,0],"split_type":[0,0,0,0,0,0,0,0,0,0,0,0,0,0,0,0,0,0,0,0,0,0,0,0,0,0,0,0,0,0,0,0,0,0,0,0,0,0,0,0,0,0,0,0,0,0,0,0,0,0,0,0,0,0,0,0,0,0,0,0,0,0,0,0,0,0,0,0,0,0,0,0,0,0,0,0,0,0,0,0,0,0,0,0,0,0,0,0,0,0,0,0,0,0,0,0,0,0,0,0,0,0,0,0,0,0,0,0,0,0,0,0,0,0,0,0,0,0,0,0,0,0,0,0,0,0,0,0,0,0,0,0,0,0,0,0,0,0,0,0,0,0,0,0,0,0,0,0,0,0,0,0,0,0,0,0,0,0,0,0,0,0,0,0,0,0,0,0,0,0,0,0,0,0,0,0,0,0,0,0,0,0,0,0,0,0,0,0,0,0,0,0,0,0,0,0,0,0,0,0,0,0,0,0,0,0,0,0,0,0,0,0,0,0,0,0,0,0,0,0,0,0,0,0,0,0,0,0,0,0,0,0,0,0,0,0,0,0,0,0,0,0,0,0,0,0,0,0,0,0,0,0,0,0,0,0,0,0,0,0,0,0,0],"sum_hessian":[7.417E3,4.42E2,6.975E3,2.33E2,2.09E2,3.941E3,3.034E3,2.3E2,3E0,3E1,1.79E2,1.921E3,2.02E3,1.763E3,1.271E3,2.27E2,3E0,2.9E1,1E0,1.76E2,3E0,8.79E2,1.042E3,4.54E2,1.566E3,1.311E3,4.52E2,1.178E3,9.3E1,2.23E2,4E0,1E0,2E0,2.8E1,1E0,1.71E2,5E0,8.2E2,5.9E1,1.02E3,2.2E1,4.41E2,1.3E1,7.48E2,8.18E2,1.011E3,3E2,3.74E2,7.8E1,8.32E2,3.46E2,8.8E1,5E0,2.19E2,4E0,2E0,2E0,2.5E1,3E0,1.65E2,6E0,4E0,1E0,4.32E2,3.88E2,3.4E1,2.5E1,7.38E2,2.82E2,2E1,2E0,3.72E2,6.9E1,4E0,9E0,5.8E2,1.68E2,5.05E2,3.13E2,8.85E2,1.26E2,5.7E1,2.43E2,3.8E1,3.36E2,7.6E1,2E0,6.53E2,1.79E2,2.44E2,1.02E2,8.6E1,2E0,2E0,3E0,2.12E2,7E0,2E0,2E0,1E0,1E0,2.4E1,1E0,1.63E2,2E0,5.3E1,3.79E2,3.83E2,5E0,2E0,3.2E1,2.1E1,4E0,6.7E2,6.8E1,1.96E2,8.6E1,2E0,1.8E1,4E0,3.68E2,2.5E1,4.4E1,6E0,3E0,3.61E2,2.19E2,1.65E2,3E0,4.02E2,1.03E2,6.1E1,2.52E2,7.7E1,8.08E2,2.7E1,9.9E1,4.4E1,1.3E1,2.29E2,1.4E1,3.7E1,1E0,2.66E2,7E1,7.4E1,2E0,1E0,1E0,4.64E2,1.89E2,7E1,1.09E2,2.41E2,3E0,1E2,2E0,8.4E1,2E0,1E0,1E0,1E0,1E0,2.1E2,2E0,6E0,1E0,1E0,1E0,2.3E1,1E0,1.61E2,2E0,4.8E1,5E0,3.74E2,5E0,1.08E2,2.75E2,1E0,4E0,1E0,1E0,3E1,2E0,1.8E1,3E0,6.66E2,4E0,6.6E1,2E0,1.93E2,3E0,7.9E1,7E0,1.7E1,1E0,2E0,2E0,3.6E2,8E0,2.2E1,3E0,2.3E1,2.1E1,2.2E1,3.39E2,2.17E2,2E0,1.61E2,4E0,3.9E2,1.2E1,9E0,9.4E1,1.5E1,4.6E1,2.49E2,3E0,5.6E1,2.1E1,2.27E2,5.81E2,2.5E1,2E0,7.9E1,2E1,4.2E1,2E0,1E1,3E0,2.26E2,3E0,1.3E1,1E0,3.5E1,2E0,1.29E2,1.37E2,4.5E1,2.5E1,6.9E1,5E0,1E0,1E0,4.62E2,2E0,9.2E1,9.7E1,6.9E1,1E0,1.05E2,4E0,2.39E2,2E0,9.8E1,2E0,1E0,1E0,8.2E1,2E0,1E0,1E0],"tree_param":{"num_deleted":"0","num_feature":"166663","num_nodes":"263","size_leaf_vector":"1"}},{"base_weights":[4.889314E-3,1.0620394E0,-5.4320246E-2,9.1269064E-1,2.7136908E0,-2.2625877E-1,2.0177253E-1,1.6836389E0,4.336569E-1,2.7848337E0,1.2706364E-2,-3.5289866E-1,-1.3128638E-2,4.6117388E-2,3.2381797E-1,1.8377253E0,-7.291229E-1,1.7924178E-1,1.674235E0,1.4118247E-1,4.050901E-2,-4.308492E-1,1.6395347E-1,9.2779547E-1,-3.8466852E-2,5.5157468E-2,-2.7542758E0,2.387671E-1,5.8097017E-1,1.8931376E0,-1.3276146E-1,-1.3307707E-1,-1.548779E-1,5.0161667E-2,2.2399635E0,1.8887193E0,-7.2882704E-2,-7.819705E-1,-3.7342066E-1,1.9219482E-1,-1.5598132E-1,1.1167719E0,-5.4971512E-2,-1.4451452E-1,7.954798E-2,3.5701938E-2,1.0779811E0,-1.6593489E-1,-2.6525259E-2,4.2276594E-1,6.491753E-2,6.347231E-1,3.2092437E-1,1.9467905E0,-5.0460815E-2,2.3243727E-1,-7.165211E-2,-6.298502E-1,3.8688886E-1,-3.4561157E-4,2.4653423E0,1.3692393E0,1.3512366E-1,-7.2125965E-1,-3.3935752E0,-4.5301157E-1,-1.7941725E-1,2.195869E-1,-1.4927174E-1,1.2021767E0,-5.108012E-2,1.01350754E-1,-3.0710742E-1,9.081679E-2,-7.761545E-2,6.1020892E-2,-7.0766896E-1,1.2805307E0,-3.495966E-2,8.587663E-1,3.7040395E-1,-1.1380188E-2,3.0799845E-1,6.510052E-1,-3.3401713E-1,3.875448E-1,-3.0466318E-2,2.0021603E0,-5.0460815E-2,-2.6310459E-2,6.411377E-1,-1.1114507E0,-1.2725465E-1,4.5408237E-1,-1.18131034E-1,1.3070111E-1,2.8180553E-2,1.5340158E0,-2.9553413E-1,1.2814486E0,-7.778058E-1,-1.8661438E-1,-3.4032535E-2,-1.0632081E-1,-5.0342965E-1,-1.661087E-1,-1.6580462E0,1.0630729E-1,1.9637439E-1,1.3667899E0,-1.2470541E-1,5.0670955E-2,7.855285E-1,-2.8415284E-1,-2.4447348E0,2.1346745E-1,-5.77756E-2,1.1181918E-1,-2.835332E-1,-1.6447118E-1,-1.0629479E0,1.6000168E0,2.151459E-1,8.833549E-1,-1.5413678E-2,2.7211988E-1,5.975551E-1,-1.653148E-1,1.542356E-1,1.6846119E-1,4.612725E-1,6.611867E-1,-3.1922158E-2,6.825316E-3,-2.2771154E-2,3.2187977E-1,5.555747E-2,1.0481788E-1,5.739253E-3,4.7131147E-2,-1.4120079E-2,-6.288597E-2,7.825855E-2,3.908816E-3,-5.8502235E-2,2.5920862E-2,-1.0817237E-1,8.45294E-2,-1.0568699E-3,-2.5345612E-2,3.1805516E-3,-4.9106684E-2,8.4358156E-2,-4.1513186E-2,3.522496E-2,-9.615905E-4,-9.772792E-2,-3.8331658E-2,-2.0055778E-2,1.8300852E-2,-9.977653E-3,-9.175422E-2,-2.3747338E-2,3.1210615E-3,2.5504107E-2,7.866202E-2,8.777781E-3,-1.8909676E-2,8.51756E-3,3.221139E-3,-1.0118431E-1,9.482456E-2,2.5514899E-2,-3.0953988E-2,-1.0873056E-2,-2.1545066E-2,-1.420234E-1,1.1184446E-2,-9.483351E-2,-7.336024E-3,1.3124402E-2,6.494543E-3,-5.168425E-2,-2.2002902E-2,5.9916414E-3,-1.7766332E-2,1.823236E-2,-6.096353E-2,2.1886747E-2,9.21677E-2,2.045833E-2,-1.3562107E-2,1.8333597E-2,4.562978E-2,1.1791865E-3,4.2683887E-3,1.7664995E-2,3.1617727E-2,-1.861522E-3,-5.0931003E-2,-6.589444E-3,1.1908182E-2,-2.1520916E-3,5.1528867E-3,4.6806313E-2,2.4566246E-2,-1.8182786E-2,3.3762112E-2,-8.877858E-3,1.7887685E-2,-2.4546688E-2],"categories":[],"categories_nodes":[],"categories_segments":[],"categories_sizes":[],"default_left":[0,0,0,1,0,0,0,0,0,0,0,0,0,0,0,0,0,0,0,0,0,0,0,0,0,0,0,0,0,0,0,0,0,0,0,0,0,0,0,0,0,0,0,0,0,0,0,0,0,0,0,0,0,0,0,0,0,0,0,0,0,0,0,0,0,0,0,0,0,0,0,0,0,0,0,0,0,0,0,0,0,0,0,0,0,0,0,0,0,0,0,0,0,0,0,0,0,0,0,0,0,0,0,0,0,0,0,0,0,0,0,0,0,0,0,0,0,0,0,0,0,0,0,0,0,0,0,0,0,0,0,0,0,0,0,0,0,0,0,0,0,0,0,0,0,0,0,0,0,0,0,0,0,0,0,0,0,0,0,0,0,0,0,0,0,0,0,0,0,0,0,0,0,0,0,0,0,0,0,0,0,0,0,0,0,0,0,0,0,0,0,0,0,0,0,0,0,0,0,0,0,0,0,0,0,0,0,0,0,0,0],"id":5,"left_children":[1,3,5,7,9,11,13,15,17,19,-1,21,23,25,27,29,31,33,35,-1,-1,37,39,41,43,45,47,49,51,53,-1,-1,55,57,59,61,-1,63,65,67,-1,69,-1,71,73,75,77,-1,-1,79,81,83,85,87,-1,89,-1,91,93,-1,95,97,-1,99,101,103,105,107,-1,109,-1,111,113,115,-1,117,119,121,-1,123,125,127,129,131,133,135,-1,137,-1,-1,139,141,143,145,-1,-1,-1,147,149,151,153,-1,-1,155,157,159,161,-1,163,165,167,169,171,173,175,177,179,181,183,185,187,189,191,193,-1,195,197,199,201,203,205,207,-1,-1,-1,209,-1,-1,-1,-1,-1,-1,-1,-1,-1,-1,-1,-1,-1,-1,-1,-1,-1,-1,-1,-1,-1,-1,-1,-1,-1,-1,-1,-1,-1,-1,-1,-1,-1,-1,-1,-1,-1,-1,-1,-1,-1,-1,-1,-1,-1,-1,-1,-1,-1,-1,-1,-1,-1,-1,-1,-1,-1,-1,-1,-1,-1,-1,-1,-1,-1,-1,-1,-1,-1,-1,-1,-1,-1,-1,-1],"loss_changes":[4.6262283E2,9.42186E1,3.0822708E2,1.3259088E2,4.891693E0,1.1303273E2,5.3404633E1,5.2644684E1,7.03992E1,8.842468E-2,0E0,1.0590961E2,3.7275852E1,3.1467527E1,3.4330017E1,3.739215E1,9.574922E0,4.9629303E1,2.8279243E1,0E0,0E0,4.5743286E1,3.2592377E1,1.6934834E1,1.9059626E1,2.4517586E1,3.2599907E0,3.791046E1,5.26178E0,2.2052582E1,0E0,0E0,4.2935114E0,4.0772873E1,5.5874214E0,1.1517914E1,0E0,4.82892E1,3.024469E1,3.0510914E1,0E0,8.167988E0,0E0,3.209184E1,1.3399506E1,2.2854689E1,9.174555E0,0E0,0E0,1.2831902E1,1.1335429E1,5.3121796E0,4.5123286E0,2.280716E1,0E0,2.5077865E0,0E0,1.413953E1,2.3057978E1,0E0,1.3542023E0,7.0369225E0,0E0,3.655577E1,3.8919144E0,2.4277893E1,1.1000307E1,1.4673771E1,0E0,8.252068E0,0E0,1.1055874E1,2.3005333E1,1.3079624E1,0E0,2.0562437E1,7.5446434E0,6.80365E0,0E0,2.0227623E0,1.1357269E1,1.1905702E1,3.0448608E0,4.5969696E0,4.049142E-1,2.7308521E0,0E0,2.1982544E1,0E0,0E0,1.6583652E0,1.371373E1,6.5181108E0,2.0824177E1,0E0,0E0,0E0,5.3925934E0,2.5999144E-1,9.922333E0,2.4379059E1,0E0,0E0,2.8613497E1,3.2411743E1,1.0199303E1,1.757021E-1,0E0,1.4171643E1,7.839531E0,4.3839246E-1,8.659703E0,5.759181E0,1.0564724E1,2.760744E0,8.900749E0,9.296401E0,2.1311573E1,9.58639E0,1.8463157E0,6.1639004E0,3.8822136E0,5.416596E-1,1.4868889E0,0E0,5.4579525E0,3.4475212E0,6.788853E0,3.7355995E0,3.819744E0,1.8892565E0,3.84523E0,0E0,0E0,0E0,1.9543209E0,0E0,0E0,0E0,0E0,0E0,0E0,0E0,0E0,0E0,0E0,0E0,0E0,0E0,0E0,0E0,0E0,0E0,0E0,0E0,0E0,0E0,0E0,0E0,0E0,0E0,0E0,0E0,0E0,0E0,0E0,0E0,0E0,0E0,0E0,0E0,0E0,0E0,0E0,0E0,0E0,0E0,0E0,0E0,0E0,0E0,0E0,0E0,0E0,0E0,0E0,0E0,0E0,0E0,0E0,0E0,0E0,0E0,0E0,0E0,0E0,0E0,0E0,0E0,0E0,0E0,0E0,0E0,0E0,0E0,0E0,0E0,0E0,0E0,0E0,0E0],"parents":[2147483647,0,0,1,1,2,2,3,3,4,4,5,5,6,6,7,7,8,8,9,9,11,11,12,12,13,13,14,14,15,15,16,16,17,17,18,18,21,21,22,22,23,23,24,24,25,25,26,26,27,27,28,28,29,29,32,32,33,33,34,34,35,35,37,37,38,38,39,39,41,41,43,43,44,44,45,45,46,46,49,49,50,50,51,51,52,52,53,53,55,55,57,57,58,58,60,60,61,61,63,63,64,64,65,65,66,66,67,67,69,69,71,71,72,72,73,73,75,75,76,76,77,77,79,79,80,80,81,81,82,82,83,83,84,84,85,85,87,87,90,90,91,91,92,92,93,93,97,97,98,98,99,99,100,100,103,103,104,104,105,105,106,106,108,108,109,109,110,110,111,111,112,112,113,113,114,114,115,115,116,116,117,117,118,118,119,119,120,120,121,121,122,122,123,123,125,125,126,126,127,127,128,128,129,129,130,130,131,131,135,135],"right_children":[2,4,6,8,10,12,14,16,18,20,-1,22,24,26,28,30,32,34,36,-1,-1,38,40,42,44,46,48,50,52,54,-1,-1,56,58,60,62,-1,64,66,68,-1,70,-1,72,74,76,78,-1,-1,80,82,84,86,88,-1,90,-1,92,94,-1,96,98,-1,100,102,104,106,108,-1,110,-1,112,114,116,-1,118,120,122,-1,124,126,128,130,132,134,136,-1,138,-1,-1,140,142,144,146,-1,-1,-1,148,150,152,154,-1,-1,156,158,160,162,-1,164,166,168,170,172,174,176,178,180,182,184,186,188,190,192,194,-1,196,198,200,202,204,206,208,-1,-1,-1,210,-1,-1,-1,-1,-1,-1,-1,-1,-1,-1,-1,-1,-1,-1,-1,-1,-1,-1,-1,-1,-1,-1,-1,-1,-1,-1,-1,-1,-1,-1,-1,-1,-1,-1,-1,-1,-1,-1,-1,-1,-1,-1,-1,-1,-1,-1,-1,-1,-1,-1,-1,-1,-1,-1,-1,-1,-1,-1,-1,-1,-1,-1,-1,-1,-1,-1,-1,-1,-1,-1,-1,-1,-1,-1,-1],"split_conditions":[1.5E4,1E0,1.11E2,5.8E1,1.21E2,1E0,2E7,2.0037071E-1,1.3380073E-1,1.4332E4,1.2706364E-2,1E0,6E4,1E0,1.37E2,1E0,3E0,1E0,9.172424E-2,1.4118247E-1,4.050901E-2,9.6E5,1E0,6.7507595E-2,8.1E6,1E0,1.36E2,3.2E7,1E0,1E0,-1.3276146E-1,-1.3307707E-1,1.5275517E-1,8.33E2,7.6E1,6.140526E-2,-7.2882704E-2,1.3685483E-1,1.02E2,1E0,-1.5598132E-1,1E0,-5.4971512E-2,1.7E6,1.1653985E-1,1E0,4.7712192E-2,-1.6593489E-1,-2.6525259E-2,4.25E6,3.0432026E8,1E0,1E0,4.5683943E-2,-5.0460815E-2,3.5E1,-7.165211E-2,9.6E1,9.5495194E-2,-3.4561157E-4,1E0,8.490221E-2,1.3512366E-1,6.1E1,3.8E6,1.3E6,1.468407E-1,4E0,-1.4927174E-1,5.7367973E-2,-5.108012E-2,1.2621368E-1,2.1785226E-1,1.8E7,-7.761545E-2,1E0,2.2E6,7.4921586E-2,-3.495966E-2,1E0,9.254242E7,1E0,1.26E2,2.5947368E-1,8E7,1.3331378E-1,-3.0466318E-2,1E0,-5.0460815E-2,-2.6310459E-2,5.8064397E-2,1E0,7.3077366E-2,1E0,-1.18131034E-1,1.3070111E-1,2.8180553E-2,6.9211364E-2,6.755E3,2.3E4,1.1759136E-1,-1.8661438E-1,-3.4032535E-2,1E0,1.0375893E7,1.455E6,2.06E7,1.0630729E-1,9.5E1,5.399506E-2,1.10834E5,1E0,1.2E5,2.08475E5,2.1E6,1E0,1.2008184E8,1E0,1.0082005E7,1.1577587E-1,1.1917781E-1,1E0,2.97835E5,1.1297634E-1,-1.5413678E-2,1E0,1E0,1E0,6.5E7,1.0903816E-1,1E0,1.7293191E-1,-3.1922158E-2,6.825316E-3,-2.2771154E-2,1E0,5.555747E-2,1.0481788E-1,5.739253E-3,4.7131147E-2,-1.4120079E-2,-6.288597E-2,7.825855E-2,3.908816E-3,-5.8502235E-2,2.5920862E-2,-1.0817237E-1,8.45294E-2,-1.0568699E-3,-2.5345612E-2,3.1805516E-3,-4.9106684E-2,8.4358156E-2,-4.1513186E-2,3.522496E-2,-9.615905E-4,-9.772792E-2,-3.8331658E-2,-2.0055778E-2,1.8300852E-2,-9.977653E-3,-9.175422E-2,-2.3747338E-2,3.1210615E-3,2.5504107E-2,7.866202E-2,8.777781E-3,-1.8909676E-2,8.51756E-3,3.221139E-3,-1.0118431E-1,9.482456E-2,2.5514899E-2,-3.0953988E-2,-1.0873056E-2,-2.1545066E-2,-1.420234E-1,1.1184446E-2,-9.483351E-2,-7.336024E-3,1.3124402E-2,6.494543E-3,-5.168425E-2,-2.2002902E-2,5.9916414E-3,-1.7766332E-2,1.823236E-2,-6.096353E-2,2.1886747E-2,9.21677E-2,2.045833E-2,-1.3562107E-2,1.8333597E-2,4.562978E-2,1.1791865E-3,4.2683887E-3,1.7664995E-2,3.1617727E-2,-1.861522E-3,-5.0931003E-2,-6.589444E-3,1.1908182E-2,-2.1520916E-3,5.1528867E-3,4.6806313E-2,2.4566246E-2,-1.8182786E-2,3.3762112E-2,-8.877858E-3,1.7887685E-2,-2.4546688E-2],"split_indices":[0,6794,2,2,2,11,1,164409,166619,1,0,7,0,91006,2,2810,2,16,163728,0,0,1,9570,166637,1,161660,2,0,18,4388,0,0,165741,0,2,164459,0,163584,2,68597,0,7423,0,0,162896,161655,164702,0,0,0,1,56888,135622,166484,0,0,0,2,162819,0,28515,162411,0,2,0,0,162538,2,0,164781,0,164409,165486,0,0,161625,0,166034,0,22239,1,11,2,165956,0,164275,0,1410,0,0,161940,768,163485,6026,0,0,0,165860,0,0,162993,0,0,12,1,0,0,0,2,163303,1,40128,0,1,0,885,1,145571,1,166641,164275,127032,1,162316,0,11,2659,161616,0,164275,7167,163583,0,0,0,95125,0,0,0,0,0,0,0,0,0,0,0,0,0,0,0,0,0,0,0,0,0,0,0,0,0,0,0,0,0,0,0,0,0,0,0,0,0,0,0,0,0,0,0,0,0,0,0,0,0,0,0,0,0,0,0,0,0,0,0,0,0,0,0,0,0,0,0,0,0,0,0,0,0,0,0],"split_type":[0,0,0,0,0,0,0,0,0,0,0,0,0,0,0,0,0,0,0,0,0,0,0,0,0,0,0,0,0,0,0,0,0,0,0,0,0,0,0,0,0,0,0,0,0,0,0,0,0,0,0,0,0,0,0,0,0,0,0,0,0,0,0,0,0,0,0,0,0,0,0,0,0,0,0,0,0,0,0,0,0,0,0,0,0,0,0,0,0,0,0,0,0,0,0,0,0,0,0,0,0,0,0,0,0,0,0,0,0,0,0,0,0,0,0,0,0,0,0,0,0,0,0,0,0,0,0,0,0,0,0,0,0,0,0,0,0,0,0,0,0,0,0,0,0,0,0,0,0,0,0,0,0,0,0,0,0,0,0,0,0,0,0,0,0,0,0,0,0,0,0,0,0,0,0,0,0,0,0,0,0,0,0,0,0,0,0,0,0,0,0,0,0,0,0,0,0,0,0,0,0,0,0,0,0,0,0,0,0,0,0],"sum_hessian":[7.389E3,3.91E2,6.998E3,3.6E2,3.1E1,4.187E3,2.811E3,1.37E2,2.23E2,3E1,1E0,2.626E3,1.561E3,1.236E3,1.575E3,1.29E2,8E0,1.86E2,3.7E1,2.9E1,1E0,2.282E3,3.44E2,4E1,1.521E3,1.233E3,3E0,1.185E3,3.9E2,1.28E2,1E0,1E0,7E0,1.76E2,1E1,3.5E1,2E0,3.19E2,1.963E3,3.42E2,2E0,3.7E1,3E0,8.01E2,7.2E2,1.211E3,2.2E1,2E0,1E0,5.75E2,6.1E2,3.22E2,6.8E1,1.26E2,2E0,6E0,1E0,5.8E1,1.18E2,1E0,9E0,2.3E1,1.2E1,3.13E2,6E0,1.391E3,5.72E2,3.4E2,2E0,3.6E1,1E0,3.19E2,4.82E2,7.16E2,4E0,1.172E3,3.9E1,2E1,2E0,6E1,5.15E2,4.65E2,1.45E2,3.17E2,5E0,6.4E1,4E0,1.24E2,2E0,2E0,4E0,2.9E1,2.9E1,1.16E2,2E0,8E0,1E0,2.1E1,2E0,8E0,3.05E2,5E0,1E0,1.77E2,1.214E3,5.68E2,4E0,3E0,3.37E2,3.2E1,4E0,2.98E2,2.1E1,4.78E2,4E0,3.92E2,3.24E2,1.022E3,1.5E2,1.6E1,2.3E1,1.5E1,5E0,5.9E1,1E0,3.61E2,1.54E2,2.41E2,2.24E2,7.7E1,6.8E1,3.15E2,2E0,1E0,4E0,6E1,4E0,1.18E2,6E0,3E0,1E0,2.8E1,1E0,2.5E1,4E0,1.14E2,2E0,1.9E1,2E0,1E0,1E0,1E0,7E0,2.95E2,1E1,1.7E2,7E0,3.38E2,8.76E2,3.3E1,5.35E2,3E0,1E0,2.37E2,1E2,2.7E1,5E0,2E0,2E0,2.97E2,1E0,3E0,1.8E1,7.8E1,4E2,1E0,3E0,3.91E2,1E0,2.54E2,7E1,1.007E3,1.5E1,1.08E2,4.2E1,1.2E1,4E0,2.1E1,2E0,1.2E1,3E0,1E0,4E0,5.7E1,2E0,1.1E2,2.51E2,1.46E2,8E0,8E0,2.33E2,1.57E2,6.7E1,7.2E1,5E0,6.6E1,2E0,3.1E2,5E0,5.8E1,2E0],"tree_param":{"num_deleted":"0","num_feature":"166663","num_nodes":"211","size_leaf_vector":"1"}},{"base_weights":[-1.4095102E-3,1.0266174E0,-6.67158E-2,1.5570515E0,3.6905044E-1,-2.6436204E-1,1.9584942E-1,1.6210359E0,-2.7192683E0,4.5040664E-1,-1.8650024E-1,-4.577584E-1,-8.064335E-2,2.5185397E-2,4.2448777E-1,1.6912069E0,-2.0573435E0,-1.6619016E-1,-2.2641588E-2,1.8037711E0,2.5223023E-1,-5.70096E-1,-2.1696971E-1,-3.3452323E-1,1.3534334E-2,-1.4677455E-1,3.0127034E-1,3.4080958E-1,7.972749E-1,1.742886E0,-8.9032754E-2,-1.631553E-1,-1.6579962E-1,2.0209684E0,-2.3133302E-2,3.7402633E-1,-1.4130367E0,-8.375762E-1,-4.391621E-1,-5.9012306E-1,-1.21739276E-1,-3.5825613E-1,7.6924485E-1,3.049784E-1,-8.241889E-2,2.303937E-1,-2.0660001E-1,1.772653E-1,5.710829E-1,8.1832623E-1,2.7436316E-1,1.0105718E0,6.529819E-1,7.896021E-1,1.9451969E0,2.2033943E-2,-3.4468915E-2,2.1689348E0,3.8794737E-2,4.3513584E-1,-1.504911E-1,-4.8398256E-1,-1.5750746E-1,-8.0493426E-1,-1.5186611E-1,-4.6233565E-1,4.993157E-1,-4.545586E-1,-1.2858868E0,-2.625629E-1,6.353513E-2,-3.3890197E-1,-8.063115E-2,7.026708E-2,2.755288E-1,1.7397767E-1,4.7291157E-1,-2.1744138E-1,6.686419E-2,1.4074008E-1,7.037265E-1,-2.7834713E-1,2.9291052E-2,6.009347E-1,6.9697045E-2,4.635726E-1,7.5555354E-1,8.3568865E-1,-9.183479E-3,1.6990203E-1,4.4084764E-1,1.0306084E0,6.594086E-2,5.220654E-1,1.1496168E0,1.5586816E0,-2.639026E-1,2.0100694E0,-1.6387662E0,2.2918172E0,3.543315E-2,4.978656E-1,-2.1357908E0,5.991229E-1,-5.6269456E-2,7.299448E-2,-8.6860734E-1,-1.4208922E-1,-5.157342E-1,6.225406E-1,-4.8862186E-1,-5.013138E-1,4.3735802E-2,-1.4112362E0,-1.0516182E-1,-5.125241E-1,-1.502711E-1,9.7829394E-2,-5.8136106E-1,-3.2463533E-1,-1.7919464E0,1.6049115E-2,4.638942E-3,2.0039356E-1,-4.745761E-2,4.871016E-1,-4.5292225E-2,-2.07888E-1,-1.1158394E0,-5.8709335E-2,2.0443957E-1,1.8622655E-1,-6.461376E-1,8.0835694E-1,-2.632626E-1,-3.180027E-1,3.940879E-2,-2.2971548E-2,6.8074286E-1,8.695949E-1,4.6346262E-1,7.964029E-2,-5.766771E-2,7.7794516E-1,3.693369E-1,7.929934E-1,-2.0366693E-2,7.100405E-1,9.9535424E-1,2.554447E-1,-2.624937E-2,4.4922754E-1,-3.4746435E-2,1.0446117E0,-5.742335E-3,5.1591634E-3,-2.1359921E-4,5.5304384E-1,-2.7006894E-1,1.1850877E0,3.9108037E-3,1.1445471E-1,-3.232677E-2,-3.2160763E-2,9.8675154E-2,1.0286498E-1,-3.5613634E-2,7.269639E-2,-1.5771534E-1,1.1856983E-1,2.347423E-2,2.8959665E-2,-8.2270704E-2,-1.3627385E-1,-9.168315E-3,4.767138E-2,-1.1594784E-2,1.3233947E-2,-8.701959E-2,-4.1785028E-2,-1.1903466E-1,-5.1220986E-3,-8.667396E-2,-2.691189E-2,9.230665E-3,3.3336233E-2,7.496127E-3,-5.4137944E-3,-3.1232847E-2,1.0514528E-3,-3.2085553E-2,-7.708927E-2,-1.2228068E-2,9.079195E-3,-1.6966332E-2,-2.3027165E-2,-9.0723716E-2,-8.4201405E-3,5.3616792E-2,1.7515328E-3,1.9101141E-2,1.6237652E-2,-3.5222393E-2,5.1864948E-2,-1.6844718E-2,-7.380915E-3,-1.0830619E-1,1.0781203E-2,-4.5103963E-2,2.5426412E-2,-2.8465202E-3,-8.69603E-3,-2.1205494E-2,-1.5652573E-2,-6.068933E-2,-4.98696E-3,1.7376756E-2,1.0899038E-2,-5.050972E-2,1.1054081E-2,-4.312067E-2,2.0476235E-2,-4.451677E-2,4.3181654E-2,-7.429123E-3,3.9045812E-4,-2.0135153E-2,-1.5338289E-2,-7.140124E-2,4.707197E-3,-3.211131E-2,-2.2483799E-3,3.478643E-2,2.393072E-2,5.148514E-2,4.6012785E-2,5.3448123E-3,2.4604678E-2,-1.3659375E-2,5.2186344E-3,-2.1421073E-2,4.3003973E-2,1.4526189E-3,1.9379586E-2,-1.9026216E-2,4.073152E-2,8.2934694E-4,3.6611397E-2,-2.9569308E-3,5.2146096E-2,7.5959684E-3,-1.9706681E-4,1.5694939E-2,4.2561933E-5,-2.1395426E-2,2.4953624E-2,1.1208038E-2,5.2882083E-2,-2.8763532E-3,2.9197454E-2,-1.0946865E-2,-1.6080176E-2,-1.5982628E-3,6.176592E-2,1.7736277E-2],"categories":[],"categories_nodes":[],"categories_segments":[],"categories_sizes":[],"default_left":[0,0,0,0,0,0,0,0,0,0,0,0,0,0,0,0,0,0,0,0,0,0,0,0,0,0,0,0,0,0,0,0,0,0,0,0,0,0,0,0,0,0,0,0,0,0,0,0,0,0,0,0,0,0,0,0,0,0,0,0,0,0,0,0,0,0,0,0,0,0,0,0,0,0,0,0,0,0,0,0,0,0,0,0,0,0,0,0,0,0,0,0,0,0,0,0,0,0,0,0,0,0,0,0,0,0,0,0,0,0,0,0,0,0,0,0,0,0,0,0,0,0,0,0,0,0,0,0,0,0,0,0,0,0,0,0,0,0,0,0,0,0,0,0,0,0,0,0,0,0,0,0,0,0,0,0,0,0,0,0,0,0,0,0,0,0,0,0,0,0,0,0,0,0,0,0,0,0,0,0,0,0,0,0,0,0,0,0,0,0,0,0,0,0,0,0,0,0,0,0,0,0,0,0,0,0,0,0,0,0,0,0,0,0,0,0,0,0,0,0,0,0,0,0,0,0,0,0,0,0,0,0,0,0,0,0,0,0,0,0,0,0,0,0,0,0,0,0,0,0,0,0,0,0,0,0,0,0,0,0,0,0,0,0,0],"id":6,"left_children":[1,3,5,7,9,11,13,15,17,19,-1,21,23,25,27,29,31,-1,-1,33,35,37,39,41,43,45,47,49,51,53,-1,-1,55,57,-1,59,61,63,65,67,69,71,73,75,77,79,81,83,85,87,89,91,93,95,97,-1,-1,99,-1,101,-1,103,-1,105,-1,107,109,111,113,115,117,119,-1,-1,121,123,125,127,129,131,133,135,137,139,141,143,145,147,-1,149,151,153,155,157,159,161,163,165,167,169,-1,171,173,175,-1,177,179,181,183,185,187,189,-1,191,193,195,197,199,201,203,205,-1,-1,207,-1,209,-1,211,213,215,217,219,221,223,225,227,229,231,233,235,237,239,-1,241,243,245,-1,247,249,251,253,255,-1,257,-1,-1,-1,259,261,263,-1,-1,-1,-1,-1,-1,-1,-1,-1,-1,-1,-1,-1,-1,-1,-1,-1,-1,-1,-1,-1,-1,-1,-1,-1,-1,-1,-1,-1,-1,-1,-1,-1,-1,-1,-1,-1,-1,-1,-1,-1,-1,-1,-1,-1,-1,-1,-1,-1,-1,-1,-1,-1,-1,-1,-1,-1,-1,-1,-1,-1,-1,-1,-1,-1,-1,-1,-1,-1,-1,-1,-1,-1,-1,-1,-1,-1,-1,-1,-1,-1,-1,-1,-1,-1,-1,-1,-1,-1,-1,-1,-1,-1,-1,-1,-1,-1,-1,-1,-1,-1,-1,-1,-1,-1],"loss_changes":[5.0016925E2,1.5463953E2,3.6357648E2,7.171814E1,6.8376724E1,1.419786E2,1.17401505E2,6.6201416E1,3.975439E0,5.2381397E1,0E0,5.25419E1,4.904357E1,8.189206E1,3.984395E1,4.5985413E1,1.0862743E1,0E0,0E0,1.3241646E1,3.5616898E1,4.610669E1,2.1995739E1,1.4814148E1,4.1888733E1,2.4033415E1,2.2048046E1,3.315468E1,6.572769E0,4.3978943E1,0E0,0E0,1.2564119E0,2.5544052E0,0E0,3.480889E1,1.784184E1,2.8789948E1,1.9651703E1,1.1299915E1,1.2957823E1,1.2660294E1,3.3814015E0,8.079487E0,2.2730995E1,6.096613E0,1.5544849E1,2.0694008E1,3.7749023E0,2.38031E0,1.6011925E1,1.6922684E0,8.69735E0,3.5251183E1,4.839917E1,0E0,0E0,1.9647064E0,0E0,2.6867107E1,0E0,6.9266434E0,0E0,2.4100616E1,0E0,1.4838516E1,2.9824328E0,7.0886097E0,2.8116531E0,7.8383274E0,4.8118653E0,1.05503235E1,0E0,0E0,3.667265E-2,6.4205823E0,3.6107101E0,4.8490067E0,9.271845E0,4.558572E0,2.5398712E0,8.883488E0,7.33565E0,2.994835E0,4.5184956E0,3.6824417E0,3.5883827E0,1.8210297E0,0E0,9.570915E0,3.70047E0,1.5796356E0,8.285486E-3,2.9713554E0,1.0094109E0,4.1747925E1,1.7394234E1,2.602362E1,2.3334549E1,1.4970245E0,0E0,2.8319366E1,4.105507E0,1.3988309E0,0E0,1.0888584E1,1.796341E1,7.772292E0,1.187233E1,3.176875E-1,8.758587E-2,7.640381E0,0E0,2.3644943E0,2.630535E-1,5.0522137E0,4.5255013E0,3.6452508E0,1.4556079E0,9.24844E0,2.7565937E0,0E0,0E0,3.6535034E0,0E0,1.9056854E0,0E0,4.237461E0,9.1807365E-2,4.7184143E0,4.430786E0,4.5036135E0,2.1691473E0,1.2391329E0,1.16539896E-1,7.370186E0,3.0079033E0,3.1929972E0,6.357255E-1,1.0607948E0,1.4631662E0,4.593457E0,0E0,1.8203068E0,1.5847893E0,1.2128181E0,0E0,1.3061943E0,1.9679337E0,6.0206203E0,1.8943901E0,3.8594513E0,0E0,1.3533173E0,0E0,0E0,0E0,2.7761154E0,5.1072747E-2,7.296715E-1,0E0,0E0,0E0,0E0,0E0,0E0,0E0,0E0,0E0,0E0,0E0,0E0,0E0,0E0,0E0,0E0,0E0,0E0,0E0,0E0,0E0,0E0,0E0,0E0,0E0,0E0,0E0,0E0,0E0,0E0,0E0,0E0,0E0,0E0,0E0,0E0,0E0,0E0,0E0,0E0,0E0,0E0,0E0,0E0,0E0,0E0,0E0,0E0,0E0,0E0,0E0,0E0,0E0,0E0,0E0,0E0,0E0,0E0,0E0,0E0,0E0,0E0,0E0,0E0,0E0,0E0,0E0,0E0,0E0,0E0,0E0,0E0,0E0,0E0,0E0,0E0,0E0,0E0,0E0,0E0,0E0,0E0,0E0,0E0,0E0,0E0,0E0,0E0,0E0,0E0,0E0,0E0,0E0,0E0,0E0,0E0,0E0,0E0,0E0,0E0,0E0,0E0,0E0,0E0,0E0],"parents":[2147483647,0,0,1,1,2,2,3,3,4,4,5,5,6,6,7,7,8,8,9,9,11,11,12,12,13,13,14,14,15,15,16,16,19,19,20,20,21,21,22,22,23,23,24,24,25,25,26,26,27,27,28,28,29,29,32,32,33,33,35,35,36,36,37,37,38,38,39,39,40,40,41,41,42,42,43,43,44,44,45,45,46,46,47,47,48,48,49,49,50,50,51,51,52,52,53,53,54,54,57,57,59,59,61,61,63,63,65,65,66,66,67,67,68,68,69,69,70,70,71,71,74,74,75,75,76,76,77,77,78,78,79,79,80,80,81,81,82,82,83,83,84,84,85,85,86,86,87,87,89,89,90,90,91,91,92,92,93,93,94,94,95,95,96,96,97,97,98,98,99,99,101,101,102,102,103,103,105,105,106,106,107,107,108,108,109,109,110,110,111,111,113,113,114,114,115,115,116,116,117,117,118,118,119,119,120,120,123,123,125,125,127,127,128,128,129,129,130,130,131,131,132,132,133,133,134,134,135,135,136,136,137,137,138,138,139,139,140,140,141,141,143,143,144,144,145,145,147,147,148,148,149,149,150,150,151,151,153,153,157,157,158,158,159,159],"right_children":[2,4,6,8,10,12,14,16,18,20,-1,22,24,26,28,30,32,-1,-1,34,36,38,40,42,44,46,48,50,52,54,-1,-1,56,58,-1,60,62,64,66,68,70,72,74,76,78,80,82,84,86,88,90,92,94,96,98,-1,-1,100,-1,102,-1,104,-1,106,-1,108,110,112,114,116,118,120,-1,-1,122,124,126,128,130,132,134,136,138,140,142,144,146,148,-1,150,152,154,156,158,160,162,164,166,168,170,-1,172,174,176,-1,178,180,182,184,186,188,190,-1,192,194,196,198,200,202,204,206,-1,-1,208,-1,210,-1,212,214,216,218,220,222,224,226,228,230,232,234,236,238,240,-1,242,244,246,-1,248,250,252,254,256,-1,258,-1,-1,-1,260,262,264,-1,-1,-1,-1,-1,-1,-1,-1,-1,-1,-1,-1,-1,-1,-1,-1,-1,-1,-1,-1,-1,-1,-1,-1,-1,-1,-1,-1,-1,-1,-1,-1,-1,-1,-1,-1,-1,-1,-1,-1,-1,-1,-1,-1,-1,-1,-1,-1,-1,-1,-1,-1,-1,-1,-1,-1,-1,-1,-1,-1,-1,-1,-1,-1,-1,-1,-1,-1,-1,-1,-1,-1,-1,-1,-1,-1,-1,-1,-1,-1,-1,-1,-1,-1,-1,-1,-1,-1,-1,-1,-1,-1,-1,-1,-1,-1,-1,-1,-1,-1,-1,-1,-1,-1,-1],"split_conditions":[3E0,1.4332E4,7.11E2,8.011176E-2,1.4749852E-1,1E0,1E0,7.644246E-2,1.8E3,6.2E1,-1.8650024E-1,1.06E2,4.6E1,3.063E3,4.489E3,1E0,1.3522297E-1,-1.6619016E-1,-2.2641588E-2,9.816219E-2,5.6964487E-2,8.1E1,2.4E1,1E0,1E0,1.3551174E7,7.819E3,1E0,1.5027014E8,1E0,-8.9032754E-2,-1.631553E-1,1E2,1.0105511E-1,-2.3133302E-2,1.2428871E-1,4.885558E-2,1E0,1E0,1E0,1.21E2,8.081107E-2,5E0,1.75E2,1.09E2,1.929E3,1.11E2,8.55123E7,1.3128E4,1E0,1.2E2,9.987761E-2,1.3128E4,6.1E1,1.2333486E-1,2.2033943E-2,-3.4468915E-2,7.0296675E-2,3.8794737E-2,1.1374323E-1,-1.504911E-1,4.18807E5,-1.5750746E-1,6.4E1,-1.5186611E-1,1E0,1.4028972E-1,7.975412E-2,1E0,1.33E2,1E0,2.012446E-1,-8.063115E-2,7.026708E-2,1E0,1E0,1E0,1E0,2.89E2,7.8246646E-2,1.0756605E-1,1E0,1.38E2,3.1430334E7,1E0,2.727429E8,1E0,1.46E3,-9.183479E-3,1E0,1E0,1E0,8.771382E7,1E0,1E0,5E2,8.955228E-2,8.571543E-2,1E1,1E0,3.543315E-2,6.0150087E-2,1.220709E6,1E0,-5.6269456E-2,8.762987E-2,1.135562E-1,2.095374E-1,1E0,9.816219E-2,1.10834E5,6E0,4.3735802E-2,9.076331E-2,5.72809E5,1E0,1E0,1.58E2,1.667192E6,1E1,1.05E2,1.6049115E-2,4.638942E-3,1.5706466E-1,-4.745761E-2,1E0,-4.5292225E-2,1E0,1.2778E6,1E0,1.7779787E-1,1.2551089E-1,3.27E6,1E0,3.76597E5,8.371347E-2,1E0,6.481133E-2,1.1759283E8,6.330718E-2,1.0743008E-1,1E0,-5.766771E-2,7.8246646E-2,1E0,1E0,-2.0366693E-2,1E0,1.0418386E-1,9.26E2,5.6730356E-2,1E0,-3.4746435E-2,1E0,-5.742335E-3,5.1591634E-3,-2.1359921E-4,1E0,7.831E8,8.182061E-2,3.9108037E-3,1.1445471E-1,-3.232677E-2,-3.2160763E-2,9.8675154E-2,1.0286498E-1,-3.5613634E-2,7.269639E-2,-1.5771534E-1,1.1856983E-1,2.347423E-2,2.8959665E-2,-8.2270704E-2,-1.3627385E-1,-9.168315E-3,4.767138E-2,-1.1594784E-2,1.3233947E-2,-8.701959E-2,-4.1785028E-2,-1.1903466E-1,-5.1220986E-3,-8.667396E-2,-2.691189E-2,9.230665E-3,3.3336233E-2,7.496127E-3,-5.4137944E-3,-3.1232847E-2,1.0514528E-3,-3.2085553E-2,-7.708927E-2,-1.2228068E-2,9.079195E-3,-1.6966332E-2,-2.3027165E-2,-9.0723716E-2,-8.4201405E-3,5.3616792E-2,1.7515328E-3,1.9101141E-2,1.6237652E-2,-3.5222393E-2,5.1864948E-2,-1.6844718E-2,-7.380915E-3,-1.0830619E-1,1.0781203E-2,-4.5103963E-2,2.5426412E-2,-2.8465202E-3,-8.69603E-3,-2.1205494E-2,-1.5652573E-2,-6.068933E-2,-4.98696E-3,1.7376756E-2,1.0899038E-2,-5.050972E-2,1.1054081E-2,-4.312067E-2,2.0476235E-2,-4.451677E-2,4.3181654E-2,-7.429123E-3,3.9045812E-4,-2.0135153E-2,-1.5338289E-2,-7.140124E-2,4.707197E-3,-3.211131E-2,-2.2483799E-3,3.478643E-2,2.393072E-2,5.148514E-2,4.6012785E-2,5.3448123E-3,2.4604678E-2,-1.3659375E-2,5.2186344E-3,-2.1421073E-2,4.3003973E-2,1.4526189E-3,1.9379586E-2,-1.9026216E-2,4.073152E-2,8.2934694E-4,3.6611397E-2,-2.9569308E-3,5.2146096E-2,7.5959684E-3,-1.9706681E-4,1.5694939E-2,4.2561933E-5,-2.1395426E-2,2.4953624E-2,1.1208038E-2,5.2882083E-2,-2.8763532E-3,2.9197454E-2,-1.0946865E-2,-1.6080176E-2,-1.5982628E-3,6.176592E-2,1.7736277E-2],"split_indices":[4,1,4,164251,162054,11,11,163696,1,2,0,2,4,4,4,6837,163696,0,0,165686,166543,4,4,161660,161616,1,4,161616,1,161616,0,0,1,162681,0,162483,164348,111619,10,161636,2,164557,4,4,2,4,2,1,4,73355,2,164152,4,2,165922,0,0,162564,0,165409,0,1,0,2,0,161616,166604,163839,142896,4,11774,166543,0,0,4044,2657,608,100104,4,163437,163212,7,2,1,5295,1,2106,4,0,21,122691,6075,1,91380,95,1,162563,163275,1,7287,0,166193,1,21783,0,166108,162598,162163,16,165686,1,4,0,164621,1,60851,3414,2,1,2,2,0,0,164713,0,132660,0,5,1,3450,165197,166506,1,2652,1,162890,18623,163553,1,164240,164076,7774,0,163437,153373,5295,0,102924,164304,4,164303,5,0,1536,0,0,0,4777,1,166639,0,0,0,0,0,0,0,0,0,0,0,0,0,0,0,0,0,0,0,0,0,0,0,0,0,0,0,0,0,0,0,0,0,0,0,0,0,0,0,0,0,0,0,0,0,0,0,0,0,0,0,0,0,0,0,0,0,0,0,0,0,0,0,0,0,0,0,0,0,0,0,0,0,0,0,0,0,0,0,0,0,0,0,0,0,0,0,0,0,0,0,0,0,0,0,0,0,0,0,0,0,0,0,0,0],"split_type":[0,0,0,0,0,0,0,0,0,0,0,0,0,0,0,0,0,0,0,0,0,0,0,0,0,0,0,0,0,0,0,0,0,0,0,0,0,0,0,0,0,0,0,0,0,0,0,0,0,0,0,0,0,0,0,0,0,0,0,0,0,0,0,0,0,0,0,0,0,0,0,0,0,0,0,0,0,0,0,0,0,0,0,0,0,0,0,0,0,0,0,0,0,0,0,0,0,0,0,0,0,0,0,0,0,0,0,0,0,0,0,0,0,0,0,0,0,0,0,0,0,0,0,0,0,0,0,0,0,0,0,0,0,0,0,0,0,0,0,0,0,0,0,0,0,0,0,0,0,0,0,0,0,0,0,0,0,0,0,0,0,0,0,0,0,0,0,0,0,0,0,0,0,0,0,0,0,0,0,0,0,0,0,0,0,0,0,0,0,0,0,0,0,0,0,0,0,0,0,0,0,0,0,0,0,0,0,0,0,0,0,0,0,0,0,0,0,0,0,0,0,0,0,0,0,0,0,0,0,0,0,0,0,0,0,0,0,0,0,0,0,0,0,0,0,0,0,0,0,0,0,0,0,0,0,0,0,0,0,0,0,0,0,0,0],"sum_hessian":[7.448E3,4.44E2,7.004E3,2.45E2,1.99E2,3.996E3,3.008E3,2.42E2,3E0,1.96E2,3E0,1.946E3,2.05E3,1.723E3,1.285E3,2.38E2,4E0,2E0,1E0,2.4E1,1.72E2,1.326E3,6.2E2,5.54E2,1.496E3,1.062E3,6.61E2,1.051E3,2.34E2,2.35E2,3E0,2E0,2E0,2.2E1,2E0,1.61E2,1.1E1,4.34E2,8.92E2,1.25E2,4.95E2,5.43E2,1.1E1,3.7E2,1.126E3,1.45E2,9.17E2,4.54E2,2.07E2,1.27E2,9.24E2,9.2E1,1.42E2,4.2E1,1.93E2,1E0,1E0,1.9E1,3E0,1.59E2,2E0,8E0,3E0,4.29E2,5E0,8.71E2,2.1E1,1.06E2,1.9E1,2.81E2,2.14E2,5.36E2,7E0,4E0,7E0,2.09E2,1.61E2,5.91E2,5.35E2,1.23E2,2.2E1,7.03E2,2.14E2,9.1E1,3.63E2,1.33E2,7.4E1,1.25E2,2E0,5.69E2,3.55E2,9E1,2E0,1.14E2,2.8E1,2.4E1,1.8E1,1.9E2,3E0,1.7E1,2E0,1.56E2,3E0,3E0,5E0,2.9E1,4E2,1.25E2,7.46E2,1.9E1,2E0,1.03E2,3E0,1.7E1,2E0,8.6E1,1.95E2,2.04E2,1E1,5.32E2,4E0,5E0,2E0,2.05E2,4E0,1.6E2,1E0,5.86E2,5E0,2.8E2,2.55E2,1.17E2,6E0,2E1,2E0,6.25E2,7.8E1,1.99E2,1.5E1,2.9E1,6.2E1,3.61E2,2E0,2.9E1,1.04E2,7.2E1,2E0,7.3E1,5.2E1,3.96E2,1.73E2,3.53E2,2E0,8.9E1,1E0,1E0,1E0,1.1E2,4E0,2.7E1,1E0,1.8E1,6E0,1.6E1,2E0,1.87E2,3E0,1E0,2E0,1.6E1,1E0,1.51E2,5E0,2E0,1E0,2E0,1E0,2.7E1,2E0,3.93E2,7E0,1.23E2,2E0,7.23E2,2.3E1,1.7E1,2E0,1E0,1E0,2.2E1,8.1E1,1.5E1,2E0,1E0,1E0,8.4E1,2E0,1.93E2,2E0,1.68E2,3.6E1,1E0,9E0,4E0,5.28E2,1E0,3E0,2.03E2,2E0,1.54E2,6E0,5.08E2,7.8E1,1E0,4E0,2.55E2,2.5E1,2.53E2,2E0,1.14E2,3E0,1E0,5E0,1.9E1,1E0,1E0,1E0,6.2E2,5E0,7.3E1,5E0,1.94E2,5E0,1.1E1,4E0,2.7E1,2E0,6E1,2E0,3.45E2,1.6E1,2.6E1,3E0,1.02E2,2E0,7E1,2E0,7.1E1,2E0,